<?xml version="1.0"?>
<opencv_storage>
    <cascade>
        <stageType>BOOST</stageType>
        <featureType>HAAR</featureType>
        <height>24</height>
        <width>24</width>
        <stageParams>
            <boostType>GAB</boostType>
            <minHitRate>9.9500000476837158e-01</minHitRate>
            <maxFalseAlarm>5.0000000000000000e-01</maxFalseAlarm>
            <weightTrimRate>9.4999999999999996e-01</weightTrimRate>
            <maxDepth>1</maxDepth>
            <maxWeakCount>100</maxWeakCount></stageParams>
        <featureParams>
            <maxCatCount>0</maxCatCount>
            <featSize>1</featSize>
            <mode>BASIC</mode></featureParams>
        <stageNum>20</stageNum>
        <stages>
            <!-- stage 0 -->
            <_>
                <maxWeakCount>8</maxWeakCount>
                <stageThreshold>-1.7257671356201172e+00</stageThreshold>
                <weakClassifiers>
                    <_>
                        <internalNodes>
                            0 -1 254 7.1906454861164093e-02</internalNodes>
                        <leafValues>
                            -6.4497369527816772e-01 8.4496122598648071e-01</leafValues></_>
                    <_>
                        <internalNodes>
                            0 -1 219 -3.8737930357456207e-02</internalNodes>
                        <leafValues>
                            8.5154294967651367e-01 -4.5260095596313477e-01</leafValues></_>
                    <_>
                        <internalNodes>
                            0 -1 9 3.7771815061569214e-01</internalNodes>
                        <leafValues>
                            3.0216181278228760e-01 -9.4169473648071289e-01</leafValues></_>
                    <_>
                        <internalNodes>
                            0 -1 181 1.0761331021785736e-01</internalNodes>
                        <leafValues>
                            -3.1411844491958618e-01 7.4162328243255615e-01</leafValues></_>
                    <_>
                        <internalNodes>
                            0 -1 271 -5.9178847819566727e-02</internalNodes>
                        <leafValues>
                            7.1343380212783813e-01 -2.8462135791778564e-01</leafValues></_>
                    <_>
                        <internalNodes>
                            0 -1 460 -5.1695205271244049e-02</internalNodes>
                        <leafValues>
                            7.2540020942687988e-01 -1.6523723304271698e-01</leafValues></_>
                    <_>
                        <internalNodes>
                            0 -1 259 2.5721918791532516e-02</internalNodes>
                        <leafValues>
                            -1.5734615921974182e-01 7.1911191940307617e-01</leafValues></_>
                    <_>
                        <internalNodes>
                            0 -1 56 9.7088582813739777e-02</internalNodes>
                        <leafValues>
                            -2.5510942935943604e-01 7.0395630598068237e-01</leafValues></_></weakClassifiers></_>
            <!-- stage 1 -->
            <_>
                <maxWeakCount>15</maxWeakCount>
                <stageThreshold>-1.9669131040573120e+00</stageThreshold>
                <weakClassifiers>
                    <_>
                        <internalNodes>
                            0 -1 171 2.0997239649295807e-01</internalNodes>
                        <leafValues>
                            -6.2510275840759277e-01 7.2111552953720093e-01</leafValues></_>
                    <_>
                        <internalNodes>
                            0 -1 216 -1.4587198197841644e-01</internalNodes>
                        <leafValues>
                            7.3643958568572998e-01 -3.2488366961479187e-01</leafValues></_>
                    <_>
                        <internalNodes>
                            0 -1 196 1.4347185194492340e-01</internalNodes>
                        <leafValues>
                            -1.4514803886413574e-01 7.9892140626907349e-01</leafValues></_>
                    <_>
                        <internalNodes>
                            0 -1 210 -1.3114264607429504e-01</internalNodes>
                        <leafValues>
                            8.0154520273208618e-01 -2.1826724708080292e-01</leafValues></_>
                    <_>
                        <internalNodes>
                            0 -1 134 -2.0827871561050415e-01</internalNodes>
                        <leafValues>
                            7.9978007078170776e-01 -9.1321811079978943e-02</leafValues></_>
                    <_>
                        <internalNodes>
                            0 -1 355 8.8901564478874207e-02</internalNodes>
                        <leafValues>
                            -1.8851816654205322e-01 6.5868842601776123e-01</leafValues></_>
                    <_>
                        <internalNodes>
                            0 -1 291 5.3994935005903244e-02</internalNodes>
                        <leafValues>
                            -1.7320102453231812e-01 4.8032176494598389e-01</leafValues></_>
                    <_>
                        <internalNodes>
                            0 -1 197 -9.6472561359405518e-02</internalNodes>
                        <leafValues>
                            5.2106106281280518e-01 -1.5942206978797913e-01</leafValues></_>
                    <_>
                        <internalNodes>
                            0 -1 160 5.4371401667594910e-02</internalNodes>
                        <leafValues>
                            -1.8775069713592529e-01 4.6061161160469055e-01</leafValues></_>
                    <_>
                        <internalNodes>
                            0 -1 68 -1.5829531848430634e-01</internalNodes>
                        <leafValues>
                            7.3564761877059937e-01 -1.3272772729396820e-01</leafValues></_>
                    <_>
                        <internalNodes>
                            0 -1 75 -4.4465392827987671e-02</internalNodes>
                        <leafValues>
                            5.1232862472534180e-01 -1.3318972289562225e-01</leafValues></_>
                    <_>
                        <internalNodes>
                            0 -1 100 1.8832266330718994e-01</internalNodes>
                        <leafValues>
                            -1.2424882501363754e-01 6.9591969251632690e-01</leafValues></_>
                    <_>
                        <internalNodes>
                            0 -1 306 4.8731546849012375e-02</internalNodes>
                        <leafValues>
                            -1.3980561494827271e-01 4.6007308363914490e-01</leafValues></_>
                    <_>
                        <internalNodes>
                            0 -1 93 -1.0473932325839996e-01</internalNodes>
                        <leafValues>
                            5.0692987442016602e-01 -1.5875905752182007e-01</leafValues></_>
                    <_>
                        <internalNodes>
                            0 -1 376 -3.4923380007967353e-04</internalNodes>
                        <leafValues>
                            -5.2542597055435181e-01 1.6974441707134247e-01</leafValues></_></weakClassifiers></_>
            <!-- stage 2 -->
            <_>
                <maxWeakCount>20</maxWeakCount>
                <stageThreshold>-1.9147623777389526e+00</stageThreshold>
                <weakClassifiers>
                    <_>
                        <internalNodes>
                            0 -1 170 2.1407772600650787e-01</internalNodes>
                        <leafValues>
                            -6.3405197858810425e-01 6.8794327974319458e-01</leafValues></_>
                    <_>
                        <internalNodes>
                            0 -1 171 -1.3398332893848419e-01</internalNodes>
                        <leafValues>
                            6.5817087888717651e-01 -3.8877341151237488e-01</leafValues></_>
                    <_>
                        <internalNodes>
                            0 -1 98 3.3813405036926270e-01</internalNodes>
                        <leafValues>
                            -8.8233329355716705e-02 7.7976953983306885e-01</leafValues></_>
                    <_>
                        <internalNodes>
                            0 -1 58 -1.5378546714782715e-01</internalNodes>
                        <leafValues>
                            6.8243396282196045e-01 -1.3809204101562500e-01</leafValues></_>
                    <_>
                        <internalNodes>
                            0 -1 376 2.0007278362754732e-04</internalNodes>
                        <leafValues>
                            1.9068390130996704e-01 -4.7389206290245056e-01</leafValues></_>
                    <_>
                        <internalNodes>
                            0 -1 8 -3.1447082757949829e-01</internalNodes>
                        <leafValues>
                            -6.8905776739120483e-01 1.0571434348821640e-01</leafValues></_>
                    <_>
                        <internalNodes>
                            0 -1 64 8.7648816406726837e-03</internalNodes>
                        <leafValues>
                            1.7695839703083038e-01 -4.6820148825645447e-01</leafValues></_>
                    <_>
                        <internalNodes>
                            0 -1 347 -2.3033475736156106e-04</internalNodes>
                        <leafValues>
                            -4.6858233213424683e-01 1.4657023549079895e-01</leafValues></_>
                    <_>
                        <internalNodes>
                            0 -1 213 -2.3119533061981201e-01</internalNodes>
                        <leafValues>
                            9.2773139476776123e-01 -7.8248679637908936e-02</leafValues></_>
                    <_>
                        <internalNodes>
                            0 -1 239 2.9177492484450340e-02</internalNodes>
                        <leafValues>
                            -1.6803601384162903e-01 4.8230466246604919e-01</leafValues></_>
                    <_>
                        <internalNodes>
                            0 -1 133 1.1176803708076477e-01</internalNodes>
                        <leafValues>
                            -1.3638845086097717e-01 5.5457890033721924e-01</leafValues></_>
                    <_>
                        <internalNodes>
                            0 -1 289 3.6797627806663513e-02</internalNodes>
                        <leafValues>
                            -2.2607626020908356e-01 4.3128153681755066e-01</leafValues></_>
                    <_>
                        <internalNodes>
                            0 -1 72 -5.5821932852268219e-02</internalNodes>
                        <leafValues>
                            5.0694626569747925e-01 -1.5909205377101898e-01</leafValues></_>
                    <_>
                        <internalNodes>
                            0 -1 445 -5.1530696451663971e-02</internalNodes>
                        <leafValues>
                            5.2138549089431763e-01 -1.7107757925987244e-01</leafValues></_>
                    <_>
                        <internalNodes>
                            0 -1 515 2.0558014512062073e-04</internalNodes>
                        <leafValues>
                            1.8584869801998138e-01 -4.5963183045387268e-01</leafValues></_>
                    <_>
                        <internalNodes>
                            0 -1 287 -4.2108353227376938e-02</internalNodes>
                        <leafValues>
                            3.7369194626808167e-01 -1.8206234276294708e-01</leafValues></_>
                    <_>
                        <internalNodes>
                            0 -1 145 3.5065606236457825e-02</internalNodes>
                        <leafValues>
                            -1.7098735272884369e-01 4.3188709020614624e-01</leafValues></_>
                    <_>
                        <internalNodes>
                            0 -1 330 1.6288258135318756e-02</internalNodes>
                        <leafValues>
                            -1.5779884159564972e-01 4.8730129003524780e-01</leafValues></_>
                    <_>
                        <internalNodes>
                            0 -1 348 5.5293582379817963e-02</internalNodes>
                        <leafValues>
                            -1.6007757186889648e-01 4.3844577670097351e-01</leafValues></_>
                    <_>
                        <internalNodes>
                            0 -1 494 3.2951503526419401e-03</internalNodes>
                        <leafValues>
                            1.4605651795864105e-01 -5.2203333377838135e-01</leafValues></_></weakClassifiers></_>
            <!-- stage 3 -->
            <_>
                <maxWeakCount>17</maxWeakCount>
                <stageThreshold>-1.5214178562164307e+00</stageThreshold>
                <weakClassifiers>
                    <_>
                        <internalNodes>
                            0 -1 212 1.5716990828514099e-01</internalNodes>
                        <leafValues>
                            -6.3606101274490356e-01 6.5423727035522461e-01</leafValues></_>
                    <_>
                        <internalNodes>
                            0 -1 255 -1.3235040009021759e-01</internalNodes>
                        <leafValues>
                            7.9772192239761353e-01 -3.6807182431221008e-01</leafValues></_>
                    <_>
                        <internalNodes>
                            0 -1 130 -1.0593448579311371e-01</internalNodes>
                        <leafValues>
                            6.2671792507171631e-01 -8.0377176403999329e-02</leafValues></_>
                    <_>
                        <internalNodes>
                            0 -1 202 -1.1309255659580231e-01</internalNodes>
                        <leafValues>
                            5.4297596216201782e-01 -1.6578325629234314e-01</leafValues></_>
                    <_>
                        <internalNodes>
                            0 -1 476 3.1904899515211582e-03</internalNodes>
                        <leafValues>
                            1.4841677248477936e-01 -5.8241367340087891e-01</leafValues></_>
                    <_>
                        <internalNodes>
                            0 -1 393 1.7417382448911667e-02</internalNodes>
                        <leafValues>
                            -1.6229921579360962e-01 4.9773052334785461e-01</leafValues></_>
                    <_>
                        <internalNodes>
                            0 -1 169 -2.1506500244140625e-01</internalNodes>
                        <leafValues>
                            8.7637555599212646e-01 -1.0510234534740448e-01</leafValues></_>
                    <_>
                        <internalNodes>
                            0 -1 498 1.9426709332037717e-04</internalNodes>
                        <leafValues>
                            1.6616393625736237e-01 -4.9925804138183594e-01</leafValues></_>
                    <_>
                        <internalNodes>
                            0 -1 463 8.8455960154533386e-02</internalNodes>
                        <leafValues>
                            -1.6179825365543365e-01 4.6028426289558411e-01</leafValues></_>
                    <_>
                        <internalNodes>
                            0 -1 245 2.2408414632081985e-02</internalNodes>
                        <leafValues>
                            -1.7908962070941925e-01 4.1376841068267822e-01</leafValues></_>
                    <_>
                        <internalNodes>
                            0 -1 409 1.2801229953765869e-01</internalNodes>
                        <leafValues>
                            -1.7259240150451660e-01 5.5396634340286255e-01</leafValues></_>
                    <_>
                        <internalNodes>
                            0 -1 449 1.6656504943966866e-02</internalNodes>
                        <leafValues>
                            -1.8706202507019043e-01 4.5829659700393677e-01</leafValues></_>
                    <_>
                        <internalNodes>
                            0 -1 281 5.1652811467647552e-02</internalNodes>
                        <leafValues>
                            -1.4748148620128632e-01 5.1777148246765137e-01</leafValues></_>
                    <_>
                        <internalNodes>
                            0 -1 341 -8.1420876085758209e-03</internalNodes>
                        <leafValues>
                            3.1737411022186279e-01 -2.5239932537078857e-01</leafValues></_>
                    <_>
                        <internalNodes>
                            0 -1 337 2.3886011331342161e-04</internalNodes>
                        <leafValues>
                            1.5860772132873535e-01 -5.1665848493576050e-01</leafValues></_>
                    <_>
                        <internalNodes>
                            0 -1 262 6.5062241628766060e-03</internalNodes>
                        <leafValues>
                            7.9880431294441223e-02 -7.8492420911788940e-01</leafValues></_>
                    <_>
                        <internalNodes>
                            0 -1 386 2.2899196483194828e-03</internalNodes>
                        <leafValues>
                            7.3167026042938232e-02 -6.9892877340316772e-01</leafValues></_></weakClassifiers></_>
            <!-- stage 4 -->
            <_>
                <maxWeakCount>21</maxWeakCount>
                <stageThreshold>-1.8632426261901855e+00</stageThreshold>
                <weakClassifiers>
                    <_>
                        <internalNodes>
                            0 -1 132 -3.0855232477188110e-01</internalNodes>
                        <leafValues>
                            8.7845301628112793e-01 -6.0742133855819702e-01</leafValues></_>
                    <_>
                        <internalNodes>
                            0 -1 257 1.1838396638631821e-01</internalNodes>
                        <leafValues>
                            -2.9556050896644592e-01 7.4072456359863281e-01</leafValues></_>
                    <_>
                        <internalNodes>
                            0 -1 83 1.2571860849857330e-01</internalNodes>
                        <leafValues>
                            -1.0353256762027740e-01 6.3515019416809082e-01</leafValues></_>
                    <_>
                        <internalNodes>
                            0 -1 277 -6.0771189630031586e-02</internalNodes>
                        <leafValues>
                            5.5079370737075806e-01 -1.5825486183166504e-01</leafValues></_>
                    <_>
                        <internalNodes>
                            0 -1 353 6.1930948868393898e-03</internalNodes>
                        <leafValues>
                            -1.6118291020393372e-01 5.0152206420898438e-01</leafValues></_>
                    <_>
                        <internalNodes>
                            0 -1 81 -4.7252703458070755e-02</internalNodes>
                        <leafValues>
                            4.9643632769584656e-01 -1.5499769151210785e-01</leafValues></_>
                    <_>
                        <internalNodes>
                            0 -1 237 -1.1096137575805187e-02</internalNodes>
                        <leafValues>
                            -7.7126950025558472e-01 1.0199743509292603e-01</leafValues></_>
                    <_>
                        <internalNodes>
                            0 -1 166 5.4759420454502106e-02</internalNodes>
                        <leafValues>
                            -1.8510258197784424e-01 4.1431319713592529e-01</leafValues></_>
                    <_>
                        <internalNodes>
                            0 -1 20 -6.5317019820213318e-02</internalNodes>
                        <leafValues>
                            5.5021905899047852e-01 -1.2920433282852173e-01</leafValues></_>
                    <_>
                        <internalNodes>
                            0 -1 168 2.7754202485084534e-01</internalNodes>
                        <leafValues>
                            -8.4073014557361603e-02 8.6577594280242920e-01</leafValues></_>
                    <_>
                        <internalNodes>
                            0 -1 441 -3.5432919859886169e-02</internalNodes>
                        <leafValues>
                            3.9628073573112488e-01 -1.5375575423240662e-01</leafValues></_>
                    <_>
                        <internalNodes>
                            0 -1 201 -7.1644067764282227e-02</internalNodes>
                        <leafValues>
                            4.5250001549720764e-01 -1.7395728826522827e-01</leafValues></_>
                    <_>
                        <internalNodes>
                            0 -1 211 -3.4842740744352341e-02</internalNodes>
                        <leafValues>
                            4.0102028846740723e-01 -1.3822981715202332e-01</leafValues></_>
                    <_>
                        <internalNodes>
                            0 -1 434 -3.2910875976085663e-02</internalNodes>
                        <leafValues>
                            4.9707466363906860e-01 -1.4746628701686859e-01</leafValues></_>
                    <_>
                        <internalNodes>
                            0 -1 418 -1.5911305090412498e-03</internalNodes>
                        <leafValues>
                            -6.1274343729019165e-01 1.2062082439661026e-01</leafValues></_>
                    <_>
                        <internalNodes>
                            0 -1 428 2.2708458709530532e-04</internalNodes>
                        <leafValues>
                            1.0231874138116837e-01 -5.0793218612670898e-01</leafValues></_>
                    <_>
                        <internalNodes>
                            0 -1 504 -3.0153161787893623e-05</internalNodes>
                        <leafValues>
                            2.8156194090843201e-01 -2.2400927543640137e-01</leafValues></_>
                    <_>
                        <internalNodes>
                            0 -1 242 3.5516887903213501e-02</internalNodes>
                        <leafValues>
                            -1.6906684637069702e-01 3.9091309905052185e-01</leafValues></_>
                    <_>
                        <internalNodes>
                            0 -1 92 2.2817060351371765e-02</internalNodes>
                        <leafValues>
                            -1.6541559994220734e-01 3.8026309013366699e-01</leafValues></_>
                    <_>
                        <internalNodes>
                            0 -1 420 1.1966118589043617e-02</internalNodes>
                        <leafValues>
                            -1.8444363772869110e-01 3.3612513542175293e-01</leafValues></_>
                    <_>
                        <internalNodes>
                            0 -1 115 4.6073488891124725e-02</internalNodes>
                        <leafValues>
                            -1.8145307898521423e-01 3.6741992831230164e-01</leafValues></_></weakClassifiers></_>
            <!-- stage 5 -->
            <_>
                <maxWeakCount>25</maxWeakCount>
                <stageThreshold>-1.7489494085311890e+00</stageThreshold>
                <weakClassifiers>
                    <_>
                        <internalNodes>
                            0 -1 168 2.7164408564567566e-01</internalNodes>
                        <leafValues>
                            -6.1160832643508911e-01 7.2769951820373535e-01</leafValues></_>
                    <_>
                        <internalNodes>
                            0 -1 131 -2.4693644046783447e-01</internalNodes>
                        <leafValues>
                            8.1285887956619263e-01 -2.5646075606346130e-01</leafValues></_>
                    <_>
                        <internalNodes>
                            0 -1 427 -2.3447985586244613e-04</internalNodes>
                        <leafValues>
                            -5.0008928775787354e-01 2.0655170083045959e-01</leafValues></_>
                    <_>
                        <internalNodes>
                            0 -1 427 7.7947668614797294e-05</internalNodes>
                        <leafValues>
                            1.7553344368934631e-01 -4.7369426488876343e-01</leafValues></_>
                    <_>
                        <internalNodes>
                            0 -1 415 1.7127877799794078e-04</internalNodes>
                        <leafValues>
                            1.2629161775112152e-01 -4.7747716307640076e-01</leafValues></_>
                    <_>
                        <internalNodes>
                            0 -1 415 -1.4897258370183408e-04</internalNodes>
                        <leafValues>
                            -4.0039214491844177e-01 1.9414581358432770e-01</leafValues></_>
                    <_>
                        <internalNodes>
                            0 -1 397 7.0303899701684713e-04</internalNodes>
                        <leafValues>
                            -1.2421752512454987e-01 4.8782593011856079e-01</leafValues></_>
                    <_>
                        <internalNodes>
                            0 -1 301 1.9709769636392593e-02</internalNodes>
                        <leafValues>
                            -1.4495061337947845e-01 4.2223545908927917e-01</leafValues></_>
                    <_>
                        <internalNodes>
                            0 -1 215 -6.1798024922609329e-02</internalNodes>
                        <leafValues>
                            4.8163145780563354e-01 -1.5829077363014221e-01</leafValues></_>
                    <_>
                        <internalNodes>
                            0 -1 194 -2.0745685696601868e-01</internalNodes>
                        <leafValues>
                            -5.6294351816177368e-01 1.0561304539442062e-01</leafValues></_>
                    <_>
                        <internalNodes>
                            0 -1 467 -6.3269650563597679e-03</internalNodes>
                        <leafValues>
                            -6.0940724611282349e-01 8.5796058177947998e-02</leafValues></_>
                    <_>
                        <internalNodes>
                            0 -1 413 -2.2448878735303879e-02</internalNodes>
                        <leafValues>
                            3.9651677012443542e-01 -1.5590916574001312e-01</leafValues></_>
                    <_>
                        <internalNodes>
                            0 -1 148 -6.5881006419658661e-02</internalNodes>
                        <leafValues>
                            4.0029683709144592e-01 -1.7875067889690399e-01</leafValues></_>
                    <_>
                        <internalNodes>
                            0 -1 247 1.0467752814292908e-01</internalNodes>
                        <leafValues>
                            -1.3497699797153473e-01 4.3311402201652527e-01</leafValues></_>
                    <_>
                        <internalNodes>
                            0 -1 218 -3.8663025945425034e-02</internalNodes>
                        <leafValues>
                            5.9967517852783203e-01 -1.0998180508613586e-01</leafValues></_>
                    <_>
                        <internalNodes>
                            0 -1 278 -6.8289220333099365e-02</internalNodes>
                        <leafValues>
                            4.6864888072013855e-01 -1.2106081098318100e-01</leafValues></_>
                    <_>
                        <internalNodes>
                            0 -1 273 6.7629136145114899e-02</internalNodes>
                        <leafValues>
                            -1.6641084849834442e-01 3.5059192776679993e-01</leafValues></_>
                    <_>
                        <internalNodes>
                            0 -1 387 7.1107506752014160e-02</internalNodes>
                        <leafValues>
                            -1.4423173666000366e-01 3.9451351761817932e-01</leafValues></_>
                    <_>
                        <internalNodes>
                            0 -1 483 -1.6473125666379929e-02</internalNodes>
                        <leafValues>
                            3.0168905854225159e-01 -2.2270402312278748e-01</leafValues></_>
                    <_>
                        <internalNodes>
                            0 -1 238 -7.2680748999118805e-03</internalNodes>
                        <leafValues>
                            -7.7631396055221558e-01 6.5341755747795105e-02</leafValues></_>
                    <_>
                        <internalNodes>
                            0 -1 284 -3.4058962017297745e-02</internalNodes>
                        <leafValues>
                            3.8322275876998901e-01 -1.7277203500270844e-01</leafValues></_>
                    <_>
                        <internalNodes>
                            0 -1 484 2.9520250391215086e-03</internalNodes>
                        <leafValues>
                            9.6043355762958527e-02 -5.6270933151245117e-01</leafValues></_>
                    <_>
                        <internalNodes>
                            0 -1 492 -3.5072301980108023e-03</internalNodes>
                        <leafValues>
                            -5.4262971878051758e-01 8.8944405317306519e-02</leafValues></_>
                    <_>
                        <internalNodes>
                            0 -1 198 -9.8078753799200058e-03</internalNodes>
                        <leafValues>
                            3.6956384778022766e-01 -1.4192532002925873e-01</leafValues></_>
                    <_>
                        <internalNodes>
                            0 -1 10 -5.3552547469735146e-03</internalNodes>
                        <leafValues>
                            -5.1950764656066895e-01 1.0461497306823730e-01</leafValues></_></weakClassifiers></_>
            <!-- stage 6 -->
            <_>
                <maxWeakCount>24</maxWeakCount>
                <stageThreshold>-1.6024622917175293e+00</stageThreshold>
                <weakClassifiers>
                    <_>
                        <internalNodes>
                            0 -1 169 2.5534275174140930e-01</internalNodes>
                        <leafValues>
                            -6.0390138626098633e-01 6.1722487211227417e-01</leafValues></_>
                    <_>
                        <internalNodes>
                            0 -1 170 -2.9398077726364136e-01</internalNodes>
                        <leafValues>
                            8.7769681215286255e-01 -2.2817806899547577e-01</leafValues></_>
                    <_>
                        <internalNodes>
                            0 -1 228 -1.8357571389060467e-04</internalNodes>
                        <leafValues>
                            -4.4655364751815796e-01 1.8338175117969513e-01</leafValues></_>
                    <_>
                        <internalNodes>
                            0 -1 228 2.8001883765682578e-04</internalNodes>
                        <leafValues>
                            1.2414935231208801e-01 -5.2762067317962646e-01</leafValues></_>
                    <_>
                        <internalNodes>
                            0 -1 400 1.1451907921582460e-03</internalNodes>
                        <leafValues>
                            -1.4840908348560333e-01 4.0077421069145203e-01</leafValues></_>
                    <_>
                        <internalNodes>
                            0 -1 473 -3.2001044601202011e-03</internalNodes>
                        <leafValues>
                            3.2541787624359131e-01 -1.6688549518585205e-01</leafValues></_>
                    <_>
                        <internalNodes>
                            0 -1 319 1.0989366471767426e-01</internalNodes>
                        <leafValues>
                            -1.4742197096347809e-01 4.8268961906433105e-01</leafValues></_>
                    <_>
                        <internalNodes>
                            0 -1 314 4.9059092998504639e-03</internalNodes>
                        <leafValues>
                            -2.3280178010463715e-01 3.6983358860015869e-01</leafValues></_>
                    <_>
                        <internalNodes>
                            0 -1 161 -9.9640563130378723e-02</internalNodes>
                        <leafValues>
                            6.0029441118240356e-01 -1.3592100143432617e-01</leafValues></_>
                    <_>
                        <internalNodes>
                            0 -1 363 1.5151227824389935e-02</internalNodes>
                        <leafValues>
                            -1.6512052714824677e-01 3.5769060254096985e-01</leafValues></_>
                    <_>
                        <internalNodes>
                            0 -1 167 -5.2271224558353424e-02</internalNodes>
                        <leafValues>
                            3.7862151861190796e-01 -1.3559499382972717e-01</leafValues></_>
                    <_>
                        <internalNodes>
                            0 -1 106 2.3179624229669571e-02</internalNodes>
                        <leafValues>
                            -1.4925941824913025e-01 3.9706170558929443e-01</leafValues></_>
                    <_>
                        <internalNodes>
                            0 -1 382 4.6319985995069146e-04</internalNodes>
                        <leafValues>
                            1.0692452639341354e-01 -4.9950921535491943e-01</leafValues></_>
                    <_>
                        <internalNodes>
                            0 -1 164 -3.2082757353782654e-01</internalNodes>
                        <leafValues>
                            8.7292951345443726e-01 -5.4924275726079941e-02</leafValues></_>
                    <_>
                        <internalNodes>
                            0 -1 388 4.5144222676753998e-03</internalNodes>
                        <leafValues>
                            -1.3013802468776703e-01 3.5180273652076721e-01</leafValues></_>
                    <_>
                        <internalNodes>
                            0 -1 113 -8.5179014131426811e-03</internalNodes>
                        <leafValues>
                            3.8041970133781433e-01 -1.2648540735244751e-01</leafValues></_>
                    <_>
                        <internalNodes>
                            0 -1 383 -2.0164791494607925e-03</internalNodes>
                        <leafValues>
                            -5.9503382444381714e-01 9.1245263814926147e-02</leafValues></_>
                    <_>
                        <internalNodes>
                            0 -1 42 1.3284019194543362e-02</internalNodes>
                        <leafValues>
                            6.0421802103519440e-02 -6.3626420497894287e-01</leafValues></_>
                    <_>
                        <internalNodes>
                            0 -1 369 -5.3549446165561676e-03</internalNodes>
                        <leafValues>
                            3.4962084889411926e-01 -1.5073198080062866e-01</leafValues></_>
                    <_>
                        <internalNodes>
                            0 -1 457 -2.5598587468266487e-02</internalNodes>
                        <leafValues>
                            3.8328656554222107e-01 -1.3404767215251923e-01</leafValues></_>
                    <_>
                        <internalNodes>
                            0 -1 344 1.5198282897472382e-01</internalNodes>
                        <leafValues>
                            -9.4339735805988312e-02 5.3521275520324707e-01</leafValues></_>
                    <_>
                        <internalNodes>
                            0 -1 454 -7.4686497449874878e-02</internalNodes>
                        <leafValues>
                            3.6453106999397278e-01 -1.5590307116508484e-01</leafValues></_>
                    <_>
                        <internalNodes>
                            0 -1 47 -4.9772363156080246e-02</internalNodes>
                        <leafValues>
                            4.1341355443000793e-01 -1.4965058863162994e-01</leafValues></_>
                    <_>
                        <internalNodes>
                            0 -1 39 -2.3820409551262856e-03</internalNodes>
                        <leafValues>
                            -5.6097757816314697e-01 9.9694281816482544e-02</leafValues></_></weakClassifiers></_>
            <!-- stage 7 -->
            <_>
                <maxWeakCount>27</maxWeakCount>
                <stageThreshold>-1.6515744924545288e+00</stageThreshold>
                <weakClassifiers>
                    <_>
                        <internalNodes>
                            0 -1 207 -2.4931013584136963e-01</internalNodes>
                        <leafValues>
                            5.5329948663711548e-01 -5.9654337167739868e-01</leafValues></_>
                    <_>
                        <internalNodes>
                            0 -1 298 1.6751745343208313e-01</internalNodes>
                        <leafValues>
                            -1.8648391962051392e-01 7.1943885087966919e-01</leafValues></_>
                    <_>
                        <internalNodes>
                            0 -1 402 4.4426473323255777e-04</internalNodes>
                        <leafValues>
                            1.3211345672607422e-01 -5.3588461875915527e-01</leafValues></_>
                    <_>
                        <internalNodes>
                            0 -1 426 -2.2498425096273422e-04</internalNodes>
                        <leafValues>
                            -5.0178092718124390e-01 1.3100746273994446e-01</leafValues></_>
                    <_>
                        <internalNodes>
                            0 -1 2 2.6115249842405319e-02</internalNodes>
                        <leafValues>
                            7.3626041412353516e-02 -7.0282620191574097e-01</leafValues></_>
                    <_>
                        <internalNodes>
                            0 -1 127 -2.7846392989158630e-01</internalNodes>
                        <leafValues>
                            5.3539997339248657e-01 -9.7404986619949341e-02</leafValues></_>
                    <_>
                        <internalNodes>
                            0 -1 570 1.0977592319250107e-02</internalNodes>
                        <leafValues>
                            1.0643848031759262e-01 -5.9539663791656494e-01</leafValues></_>
                    <_>
                        <internalNodes>
                            0 -1 272 6.4577413722872734e-03</internalNodes>
                        <leafValues>
                            -1.5965738892555237e-01 3.9276859164237976e-01</leafValues></_>
                    <_>
                        <internalNodes>
                            0 -1 18 7.4581271037459373e-03</internalNodes>
                        <leafValues>
                            1.1389148235321045e-01 -5.3524005413055420e-01</leafValues></_>
                    <_>
                        <internalNodes>
                            0 -1 80 -4.4266050681471825e-03</internalNodes>
                        <leafValues>
                            3.3043962717056274e-01 -1.5737466514110565e-01</leafValues></_>
                    <_>
                        <internalNodes>
                            0 -1 462 7.2830691933631897e-02</internalNodes>
                        <leafValues>
                            -1.4192202687263489e-01 3.7970128655433655e-01</leafValues></_>
                    <_>
                        <internalNodes>
                            0 -1 563 1.3446155935525894e-02</internalNodes>
                        <leafValues>
                            1.1251080036163330e-01 -4.7590860724449158e-01</leafValues></_>
                    <_>
                        <internalNodes>
                            0 -1 508 -1.9347732886672020e-02</internalNodes>
                        <leafValues>
                            3.1570941209793091e-01 -1.6706506907939911e-01</leafValues></_>
                    <_>
                        <internalNodes>
                            0 -1 90 -1.1804330162703991e-02</internalNodes>
                        <leafValues>
                            -6.2020975351333618e-01 7.8601822257041931e-02</leafValues></_>
                    <_>
                        <internalNodes>
                            0 -1 125 -1.3557451963424683e-01</internalNodes>
                        <leafValues>
                            4.2458215355873108e-01 -1.4157767593860626e-01</leafValues></_>
                    <_>
                        <internalNodes>
                            0 -1 122 1.4726574718952179e-01</internalNodes>
                        <leafValues>
                            -1.3583216071128845e-01 4.3915158510208130e-01</leafValues></_>
                    <_>
                        <internalNodes>
                            0 -1 367 3.7994980812072754e-03</internalNodes>
                        <leafValues>
                            -1.3906736671924591e-01 3.1985709071159363e-01</leafValues></_>
                    <_>
                        <internalNodes>
                            0 -1 459 2.9880627989768982e-03</internalNodes>
                        <leafValues>
                            9.0312846004962921e-02 -4.8438394069671631e-01</leafValues></_>
                    <_>
                        <internalNodes>
                            0 -1 540 -3.6102598533034325e-03</internalNodes>
                        <leafValues>
                            -5.8607989549636841e-01 6.5455503761768341e-02</leafValues></_>
                    <_>
                        <internalNodes>
                            0 -1 556 2.4225475499406457e-05</internalNodes>
                        <leafValues>
                            -1.7597597837448120e-01 2.4121108651161194e-01</leafValues></_>
                    <_>
                        <internalNodes>
                            0 -1 351 1.0703962761908770e-03</internalNodes>
                        <leafValues>
                            8.1151418387889862e-02 -4.9225905537605286e-01</leafValues></_>
                    <_>
                        <internalNodes>
                            0 -1 258 -2.1133618056774139e-01</internalNodes>
                        <leafValues>
                            6.6670942306518555e-01 -6.9683469831943512e-02</leafValues></_>
                    <_>
                        <internalNodes>
                            0 -1 253 -3.7149012088775635e-02</internalNodes>
                        <leafValues>
                            3.9084231853485107e-01 -1.1716841161251068e-01</leafValues></_>
                    <_>
                        <internalNodes>
                            0 -1 67 -1.7026423010975122e-03</internalNodes>
                        <leafValues>
                            3.0199065804481506e-01 -1.3484662771224976e-01</leafValues></_>
                    <_>
                        <internalNodes>
                            0 -1 44 -1.8637455999851227e-02</internalNodes>
                        <leafValues>
                            -6.0201013088226318e-01 7.1294240653514862e-02</leafValues></_>
                    <_>
                        <internalNodes>
                            0 -1 349 1.7276318976655602e-04</internalNodes>
                        <leafValues>
                            1.0149274021387100e-01 -3.8353413343429565e-01</leafValues></_>
                    <_>
                        <internalNodes>
                            0 -1 224 2.2300252690911293e-02</internalNodes>
                        <leafValues>
                            -1.7355333268642426e-01 2.7307093143463135e-01</leafValues></_></weakClassifiers></_>
            <!-- stage 8 -->
            <_>
                <maxWeakCount>29</maxWeakCount>
                <stageThreshold>-1.6291006803512573e+00</stageThreshold>
                <weakClassifiers>
                    <_>
                        <internalNodes>
                            0 -1 208 3.1144040822982788e-01</internalNodes>
                        <leafValues>
                            -5.8765631914138794e-01 7.7304965257644653e-01</leafValues></_>
                    <_>
                        <internalNodes>
                            0 -1 168 -2.9889589548110962e-01</internalNodes>
                        <leafValues>
                            8.0650883913040161e-01 -1.9110840559005737e-01</leafValues></_>
                    <_>
                        <internalNodes>
                            0 -1 417 -8.6552210152149200e-02</internalNodes>
                        <leafValues>
                            4.3756723403930664e-01 -8.6698859930038452e-02</leafValues></_>
                    <_>
                        <internalNodes>
                            0 -1 121 -2.3894798755645752e-01</internalNodes>
                        <leafValues>
                            4.6316140890121460e-01 -1.5044833719730377e-01</leafValues></_>
                    <_>
                        <internalNodes>
                            0 -1 186 8.9006319642066956e-02</internalNodes>
                        <leafValues>
                            -1.4573276042938232e-01 3.7689176201820374e-01</leafValues></_>
                    <_>
                        <internalNodes>
                            0 -1 419 9.6354465931653976e-03</internalNodes>
                        <leafValues>
                            -1.6275729238986969e-01 3.5993137955665588e-01</leafValues></_>
                    <_>
                        <internalNodes>
                            0 -1 59 2.3739889002172276e-05</internalNodes>
                        <leafValues>
                            -1.8518003821372986e-01 2.6975759863853455e-01</leafValues></_>
                    <_>
                        <internalNodes>
                            0 -1 94 6.0585690662264824e-03</internalNodes>
                        <leafValues>
                            -1.2603104114532471e-01 3.6440047621726990e-01</leafValues></_>
                    <_>
                        <internalNodes>
                            0 -1 117 4.4599480926990509e-02</internalNodes>
                        <leafValues>
                            -7.5823910534381866e-02 4.7190356254577637e-01</leafValues></_>
                    <_>
                        <internalNodes>
                            0 -1 323 -2.5090053677558899e-02</internalNodes>
                        <leafValues>
                            3.3028733730316162e-01 -1.8080909550189972e-01</leafValues></_>
                    <_>
                        <internalNodes>
                            0 -1 256 5.5610947310924530e-02</internalNodes>
                        <leafValues>
                            -1.4021155238151550e-01 3.4532177448272705e-01</leafValues></_>
                    <_>
                        <internalNodes>
                            0 -1 527 -4.6646446571685374e-04</internalNodes>
                        <leafValues>
                            -4.3721559643745422e-01 1.2012616544961929e-01</leafValues></_>
                    <_>
                        <internalNodes>
                            0 -1 503 -1.4692163094878197e-03</internalNodes>
                        <leafValues>
                            3.9197462797164917e-01 -1.2596733868122101e-01</leafValues></_>
                    <_>
                        <internalNodes>
                            0 -1 471 -6.8342546001076698e-03</internalNodes>
                        <leafValues>
                            -8.0011796951293945e-01 6.8189494311809540e-02</leafValues></_>
                    <_>
                        <internalNodes>
                            0 -1 546 -1.6600031405687332e-02</internalNodes>
                        <leafValues>
                            4.2986205220222473e-01 -1.1494512856006622e-01</leafValues></_>
                    <_>
                        <internalNodes>
                            0 -1 230 4.3999738991260529e-03</internalNodes>
                        <leafValues>
                            -1.2305771559476852e-01 3.4231516718864441e-01</leafValues></_>
                    <_>
                        <internalNodes>
                            0 -1 143 -2.6062217075377703e-03</internalNodes>
                        <leafValues>
                            3.0819511413574219e-01 -1.6535988450050354e-01</leafValues></_>
                    <_>
                        <internalNodes>
                            0 -1 362 2.3415454197674990e-03</internalNodes>
                        <leafValues>
                            8.6627118289470673e-02 -5.5139380693435669e-01</leafValues></_>
                    <_>
                        <internalNodes>
                            0 -1 149 -8.2689262926578522e-03</internalNodes>
                        <leafValues>
                            -6.1799973249435425e-01 6.5237842500209808e-02</leafValues></_>
                    <_>
                        <internalNodes>
                            0 -1 135 -8.0185264348983765e-02</internalNodes>
                        <leafValues>
                            3.6782461404800415e-01 -1.2656478583812714e-01</leafValues></_>
                    <_>
                        <internalNodes>
                            0 -1 76 4.5007124543190002e-02</internalNodes>
                        <leafValues>
                            -2.0423595607280731e-01 3.5669645667076111e-01</leafValues></_>
                    <_>
                        <internalNodes>
                            0 -1 364 -2.4755147751420736e-04</internalNodes>
                        <leafValues>
                            -4.0591821074485779e-01 1.1762177944183350e-01</leafValues></_>
                    <_>
                        <internalNodes>
                            0 -1 293 1.7112669348716736e-01</internalNodes>
                        <leafValues>
                            5.4273750633001328e-02 -8.2103604078292847e-01</leafValues></_>
                    <_>
                        <internalNodes>
                            0 -1 506 1.3398132978181820e-05</internalNodes>
                        <leafValues>
                            -2.3421871662139893e-01 2.0614047348499298e-01</leafValues></_>
                    <_>
                        <internalNodes>
                            0 -1 480 5.4491492919623852e-03</internalNodes>
                        <leafValues>
                            -1.3275848329067230e-01 3.4370377659797668e-01</leafValues></_>
                    <_>
                        <internalNodes>
                            0 -1 260 1.1460392270237207e-03</internalNodes>
                        <leafValues>
                            1.0671374201774597e-01 -4.0553793311119080e-01</leafValues></_>
                    <_>
                        <internalNodes>
                            0 -1 533 -2.0392006263136864e-03</internalNodes>
                        <leafValues>
                            -5.2122932672500610e-01 8.3907410502433777e-02</leafValues></_>
                    <_>
                        <internalNodes>
                            0 -1 24 1.8371008336544037e-01</internalNodes>
                        <leafValues>
                            5.7139147073030472e-02 -6.7775487899780273e-01</leafValues></_>
                    <_>
                        <internalNodes>
                            0 -1 511 -8.9841848239302635e-04</internalNodes>
                        <leafValues>
                            -4.4305899739265442e-01 9.0426832437515259e-02</leafValues></_></weakClassifiers></_>
            <!-- stage 9 -->
            <_>
                <maxWeakCount>26</maxWeakCount>
                <stageThreshold>-1.5596642494201660e+00</stageThreshold>
                <weakClassifiers>
                    <_>
                        <internalNodes>
                            0 -1 168 3.0833929777145386e-01</internalNodes>
                        <leafValues>
                            -5.9171599149703979e-01 5.4945057630538940e-01</leafValues></_>
                    <_>
                        <internalNodes>
                            0 -1 170 -3.2420253753662109e-01</internalNodes>
                        <leafValues>
                            8.7555861473083496e-01 -1.5628811717033386e-01</leafValues></_>
                    <_>
                        <internalNodes>
                            0 -1 426 1.7114011279772967e-04</internalNodes>
                        <leafValues>
                            1.2994520366191864e-01 -4.5459991693496704e-01</leafValues></_>
                    <_>
                        <internalNodes>
                            0 -1 478 4.9599884077906609e-03</internalNodes>
                        <leafValues>
                            -1.2261819839477539e-01 4.0160194039344788e-01</leafValues></_>
                    <_>
                        <internalNodes>
                            0 -1 375 -3.8269459037110209e-04</internalNodes>
                        <leafValues>
                            -4.6066290140151978e-01 1.0154426842927933e-01</leafValues></_>
                    <_>
                        <internalNodes>
                            0 -1 23 -1.6279004514217377e-02</internalNodes>
                        <leafValues>
                            -8.6161458492279053e-01 6.1762750148773193e-02</leafValues></_>
                    <_>
                        <internalNodes>
                            0 -1 377 2.2210957831703126e-04</internalNodes>
                        <leafValues>
                            1.3791681826114655e-01 -3.8587254285812378e-01</leafValues></_>
                    <_>
                        <internalNodes>
                            0 -1 410 6.5355636179447174e-03</internalNodes>
                        <leafValues>
                            -1.2812978029251099e-01 4.0495011210441589e-01</leafValues></_>
                    <_>
                        <internalNodes>
                            0 -1 416 -3.1313886865973473e-03</internalNodes>
                        <leafValues>
                            3.5969519615173340e-01 -1.9350512325763702e-01</leafValues></_>
                    <_>
                        <internalNodes>
                            0 -1 246 6.1679832637310028e-02</internalNodes>
                        <leafValues>
                            -1.6392585635185242e-01 3.2308200001716614e-01</leafValues></_>
                    <_>
                        <internalNodes>
                            0 -1 240 -5.3078636527061462e-02</internalNodes>
                        <leafValues>
                            3.4384417533874512e-01 -1.5097001194953918e-01</leafValues></_>
                    <_>
                        <internalNodes>
                            0 -1 339 1.0650401934981346e-02</internalNodes>
                        <leafValues>
                            -1.3830576837062836e-01 3.4546330571174622e-01</leafValues></_>
                    <_>
                        <internalNodes>
                            0 -1 136 6.8698912858963013e-02</internalNodes>
                        <leafValues>
                            -1.3655309379100800e-01 3.7363496422767639e-01</leafValues></_>
                    <_>
                        <internalNodes>
                            0 -1 263 2.9384231194853783e-02</internalNodes>
                        <leafValues>
                            -1.4640389382839203e-01 4.3728017807006836e-01</leafValues></_>
                    <_>
                        <internalNodes>
                            0 -1 150 3.8832269608974457e-02</internalNodes>
                        <leafValues>
                            -1.0475394874811172e-01 4.6432507038116455e-01</leafValues></_>
                    <_>
                        <internalNodes>
                            0 -1 516 1.5476237051188946e-02</internalNodes>
                        <leafValues>
                            -1.5750792622566223e-01 3.3843803405761719e-01</leafValues></_>
                    <_>
                        <internalNodes>
                            0 -1 77 1.1556946672499180e-02</internalNodes>
                        <leafValues>
                            5.8741472661495209e-02 -7.3227280378341675e-01</leafValues></_>
                    <_>
                        <internalNodes>
                            0 -1 226 -1.3480061898007989e-04</internalNodes>
                        <leafValues>
                            -3.8173574209213257e-01 1.1291532218456268e-01</leafValues></_>
                    <_>
                        <internalNodes>
                            0 -1 158 -1.1433022336859722e-05</internalNodes>
                        <leafValues>
                            2.4704854190349579e-01 -1.8239569664001465e-01</leafValues></_>
                    <_>
                        <internalNodes>
                            0 -1 158 1.0955463949358091e-05</internalNodes>
                        <leafValues>
                            -2.0533938705921173e-01 3.0101493000984192e-01</leafValues></_>
                    <_>
                        <internalNodes>
                            0 -1 431 -2.0946847507730126e-04</internalNodes>
                        <leafValues>
                            -3.5617542266845703e-01 1.1279958486557007e-01</leafValues></_>
                    <_>
                        <internalNodes>
                            0 -1 146 5.2448622882366180e-02</internalNodes>
                        <leafValues>
                            -1.3952209055423737e-01 3.1223911046981812e-01</leafValues></_>
                    <_>
                        <internalNodes>
                            0 -1 496 2.3417625576257706e-02</internalNodes>
                        <leafValues>
                            -1.5390838682651520e-01 3.3237236738204956e-01</leafValues></_>
                    <_>
                        <internalNodes>
                            0 -1 282 1.1442857066867873e-04</internalNodes>
                        <leafValues>
                            -1.9273099303245544e-01 2.5799807906150818e-01</leafValues></_>
                    <_>
                        <internalNodes>
                            0 -1 525 3.5870523424819112e-04</internalNodes>
                        <leafValues>
                            1.2761193513870239e-01 -3.6138349771499634e-01</leafValues></_>
                    <_>
                        <internalNodes>
                            0 -1 309 1.8001578282564878e-03</internalNodes>
                        <leafValues>
                            1.1133155226707458e-01 -3.5023939609527588e-01</leafValues></_></weakClassifiers></_>
            <!-- stage 10 -->
            <_>
                <maxWeakCount>31</maxWeakCount>
                <stageThreshold>-1.5792058706283569e+00</stageThreshold>
                <weakClassifiers>
                    <_>
                        <internalNodes>
                            0 -1 163 3.7106800079345703e-01</internalNodes>
                        <leafValues>
                            -5.7883596420288086e-01 7.3333334922790527e-01</leafValues></_>
                    <_>
                        <internalNodes>
                            0 -1 212 -2.4992454051971436e-01</internalNodes>
                        <leafValues>
                            7.5109004974365234e-01 -1.6686657071113586e-01</leafValues></_>
                    <_>
                        <internalNodes>
                            0 -1 248 -1.8277031183242798e-01</internalNodes>
                        <leafValues>
                            -6.7984431982040405e-01 9.8630659282207489e-02</leafValues></_>
                    <_>
                        <internalNodes>
                            0 -1 183 4.1840993799269199e-04</internalNodes>
                        <leafValues>
                            1.6263037919998169e-01 -4.0335702896118164e-01</leafValues></_>
                    <_>
                        <internalNodes>
                            0 -1 544 2.8224187553860247e-04</internalNodes>
                        <leafValues>
                            8.8714390993118286e-02 -5.0721299648284912e-01</leafValues></_>
                    <_>
                        <internalNodes>
                            0 -1 144 4.9574635922908783e-03</internalNodes>
                        <leafValues>
                            -1.9947521388530731e-01 4.4127944111824036e-01</leafValues></_>
                    <_>
                        <internalNodes>
                            0 -1 304 -4.1488362476229668e-03</internalNodes>
                        <leafValues>
                            4.8566517233848572e-01 -1.6519035398960114e-01</leafValues></_>
                    <_>
                        <internalNodes>
                            0 -1 488 1.3719478156417608e-03</internalNodes>
                        <leafValues>
                            -1.6857786476612091e-01 2.5340291857719421e-01</leafValues></_>
                    <_>
                        <internalNodes>
                            0 -1 157 1.2139124795794487e-02</internalNodes>
                        <leafValues>
                            1.0026962310075760e-01 -5.4716944694519043e-01</leafValues></_>
                    <_>
                        <internalNodes>
                            0 -1 95 1.4857694506645203e-01</internalNodes>
                        <leafValues>
                            -1.4098039269447327e-01 4.3458905816078186e-01</leafValues></_>
                    <_>
                        <internalNodes>
                            0 -1 461 8.3520263433456421e-03</internalNodes>
                        <leafValues>
                            -1.2934494018554688e-01 4.7930705547332764e-01</leafValues></_>
                    <_>
                        <internalNodes>
                            0 -1 466 9.5511588733643293e-04</internalNodes>
                        <leafValues>
                            1.4391826093196869e-01 -3.2915297150611877e-01</leafValues></_>
                    <_>
                        <internalNodes>
                            0 -1 451 4.6874890103936195e-03</internalNodes>
                        <leafValues>
                            -1.5014949440956116e-01 3.0354377627372742e-01</leafValues></_>
                    <_>
                        <internalNodes>
                            0 -1 369 1.6873591812327504e-03</internalNodes>
                        <leafValues>
                            -1.7646989226341248e-01 2.4814511835575104e-01</leafValues></_>
                    <_>
                        <internalNodes>
                            0 -1 388 -5.0332024693489075e-03</internalNodes>
                        <leafValues>
                            3.2211011648178101e-01 -1.2781250476837158e-01</leafValues></_>
                    <_>
                        <internalNodes>
                            0 -1 555 8.4503563120961189e-03</internalNodes>
                        <leafValues>
                            6.1301134526729584e-02 -7.4196469783782959e-01</leafValues></_>
                    <_>
                        <internalNodes>
                            0 -1 123 -1.1704330146312714e-01</internalNodes>
                        <leafValues>
                            -3.9213773608207703e-01 9.7289688885211945e-02</leafValues></_>
                    <_>
                        <internalNodes>
                            0 -1 513 1.4680989261250943e-04</internalNodes>
                        <leafValues>
                            1.1399868875741959e-01 -3.8096815347671509e-01</leafValues></_>
                    <_>
                        <internalNodes>
                            0 -1 354 2.1431045606732368e-03</internalNodes>
                        <leafValues>
                            4.3745901435613632e-02 -7.2046911716461182e-01</leafValues></_>
                    <_>
                        <internalNodes>
                            0 -1 107 -3.5565622150897980e-02</internalNodes>
                        <leafValues>
                            2.9095467925071716e-01 -1.4224407076835632e-01</leafValues></_>
                    <_>
                        <internalNodes>
                            0 -1 109 2.7557127177715302e-02</internalNodes>
                        <leafValues>
                            -1.7126241326332092e-01 2.8146785497665405e-01</leafValues></_>
                    <_>
                        <internalNodes>
                            0 -1 51 -1.1128455400466919e-02</internalNodes>
                        <leafValues>
                            -7.1459388732910156e-01 6.0093130916357040e-02</leafValues></_>
                    <_>
                        <internalNodes>
                            0 -1 57 -1.9686138257384300e-03</internalNodes>
                        <leafValues>
                            -3.6155337095260620e-01 9.1231621801853180e-02</leafValues></_>
                    <_>
                        <internalNodes>
                            0 -1 324 -3.3590737730264664e-02</internalNodes>
                        <leafValues>
                            3.8395944237709045e-01 -1.0086386650800705e-01</leafValues></_>
                    <_>
                        <internalNodes>
                            0 -1 234 1.8975026905536652e-02</internalNodes>
                        <leafValues>
                            -1.2227110564708710e-01 3.1377524137496948e-01</leafValues></_>
                    <_>
                        <internalNodes>
                            0 -1 156 3.1549639999866486e-02</internalNodes>
                        <leafValues>
                            7.8467026352882385e-02 -5.5562359094619751e-01</leafValues></_>
                    <_>
                        <internalNodes>
                            0 -1 332 6.0051001608371735e-02</internalNodes>
                        <leafValues>
                            -1.4125727117061615e-01 3.1085905432701111e-01</leafValues></_>
                    <_>
                        <internalNodes>
                            0 -1 29 -1.6572113335132599e-01</internalNodes>
                        <leafValues>
                            4.5145678520202637e-01 -1.0316625237464905e-01</leafValues></_>
                    <_>
                        <internalNodes>
                            0 -1 500 2.6188152842223644e-03</internalNodes>
                        <leafValues>
                            8.5938185453414917e-02 -4.8655745387077332e-01</leafValues></_>
                    <_>
                        <internalNodes>
                            0 -1 52 -2.6093461201526225e-05</internalNodes>
                        <leafValues>
                            1.9213436543941498e-01 -2.0752799510955811e-01</leafValues></_>
                    <_>
                        <internalNodes>
                            0 -1 371 1.0691314935684204e-02</internalNodes>
                        <leafValues>
                            5.6382209062576294e-02 -7.2405284643173218e-01</leafValues></_></weakClassifiers></_>
            <!-- stage 11 -->
            <_>
                <maxWeakCount>32</maxWeakCount>
                <stageThreshold>-1.5467150211334229e+00</stageThreshold>
                <weakClassifiers>
                    <_>
                        <internalNodes>
                            0 -1 172 -3.3760637044906616e-01</internalNodes>
                        <leafValues>
                            4.8965516686439514e-01 -5.7816243171691895e-01</leafValues></_>
                    <_>
                        <internalNodes>
                            0 -1 132 3.0852252244949341e-01</internalNodes>
                        <leafValues>
                            -1.6810427606105804e-01 5.8000737428665161e-01</leafValues></_>
                    <_>
                        <internalNodes>
                            0 -1 104 5.2079975605010986e-02</internalNodes>
                        <leafValues>
                            -1.1493796110153198e-01 4.4437295198440552e-01</leafValues></_>
                    <_>
                        <internalNodes>
                            0 -1 78 -6.7817261442542076e-03</internalNodes>
                        <leafValues>
                            4.4371923804283142e-01 -1.6181494295597076e-01</leafValues></_>
                    <_>
                        <internalNodes>
                            0 -1 444 2.9029618948698044e-02</internalNodes>
                        <leafValues>
                            -1.3273119926452637e-01 3.0191206932067871e-01</leafValues></_>
                    <_>
                        <internalNodes>
                            0 -1 162 2.6998680830001831e-01</internalNodes>
                        <leafValues>
                            -1.2781186401844025e-01 3.8475710153579712e-01</leafValues></_>
                    <_>
                        <internalNodes>
                            0 -1 184 -1.3156899809837341e-01</internalNodes>
                        <leafValues>
                            3.7693926692008972e-01 -1.1522335559129715e-01</leafValues></_>
                    <_>
                        <internalNodes>
                            0 -1 472 -3.3790662884712219e-02</internalNodes>
                        <leafValues>
                            3.9049127697944641e-01 -1.0702024400234222e-01</leafValues></_>
                    <_>
                        <internalNodes>
                            0 -1 458 -8.9554250240325928e-02</internalNodes>
                        <leafValues>
                            4.6084660291671753e-01 -1.0040173679590225e-01</leafValues></_>
                    <_>
                        <internalNodes>
                            0 -1 173 2.4047821760177612e-02</internalNodes>
                        <leafValues>
                            -9.0005896985530853e-02 3.6958307027816772e-01</leafValues></_>
                    <_>
                        <internalNodes>
                            0 -1 46 -2.8656363487243652e-02</internalNodes>
                        <leafValues>
                            3.7717276811599731e-01 -1.3004319369792938e-01</leafValues></_>
                    <_>
                        <internalNodes>
                            0 -1 430 2.9561144765466452e-04</internalNodes>
                        <leafValues>
                            1.3600680232048035e-01 -3.1536486744880676e-01</leafValues></_>
                    <_>
                        <internalNodes>
                            0 -1 390 2.5116275064647198e-03</internalNodes>
                        <leafValues>
                            9.0312145650386810e-02 -4.6769762039184570e-01</leafValues></_>
                    <_>
                        <internalNodes>
                            0 -1 312 2.4183508940041065e-03</internalNodes>
                        <leafValues>
                            -1.1422821879386902e-01 3.6895650625228882e-01</leafValues></_>
                    <_>
                        <internalNodes>
                            0 -1 561 -1.1430165730416775e-02</internalNodes>
                        <leafValues>
                            -5.4313379526138306e-01 8.2612968981266022e-02</leafValues></_>
                    <_>
                        <internalNodes>
                            0 -1 567 -2.3498634618590586e-05</internalNodes>
                        <leafValues>
                            2.1409003436565399e-01 -2.1743948757648468e-01</leafValues></_>
                    <_>
                        <internalNodes>
                            0 -1 443 -1.6384925402235240e-04</internalNodes>
                        <leafValues>
                            -3.7834328413009644e-01 1.1362295597791672e-01</leafValues></_>
                    <_>
                        <internalNodes>
                            0 -1 440 6.8166982382535934e-03</internalNodes>
                        <leafValues>
                            -9.4373352825641632e-02 4.4950819015502930e-01</leafValues></_>
                    <_>
                        <internalNodes>
                            0 -1 283 7.5800538063049316e-02</internalNodes>
                        <leafValues>
                            4.3225344270467758e-02 -8.8575971126556396e-01</leafValues></_>
                    <_>
                        <internalNodes>
                            0 -1 329 5.6760683655738831e-02</internalNodes>
                        <leafValues>
                            4.0693979710340500e-02 -7.1381884813308716e-01</leafValues></_>
                    <_>
                        <internalNodes>
                            0 -1 566 -6.6006476990878582e-03</internalNodes>
                        <leafValues>
                            -3.4202593564987183e-01 1.0582564771175385e-01</leafValues></_>
                    <_>
                        <internalNodes>
                            0 -1 315 -1.7590171098709106e-01</internalNodes>
                        <leafValues>
                            -8.0643272399902344e-01 4.2087938636541367e-02</leafValues></_>
                    <_>
                        <internalNodes>
                            0 -1 303 -6.3624251633882523e-03</internalNodes>
                        <leafValues>
                            4.1268667578697205e-01 -1.0297627747058868e-01</leafValues></_>
                    <_>
                        <internalNodes>
                            0 -1 554 -3.3543081954121590e-03</internalNodes>
                        <leafValues>
                            3.6756956577301025e-01 -9.7577698528766632e-02</leafValues></_>
                    <_>
                        <internalNodes>
                            0 -1 217 -4.1118343360722065e-03</internalNodes>
                        <leafValues>
                            -4.5270437002182007e-01 8.9619264006614685e-02</leafValues></_>
                    <_>
                        <internalNodes>
                            0 -1 11 -5.3125810623168945e-01</internalNodes>
                        <leafValues>
                            4.9734589457511902e-01 -8.9646257460117340e-02</leafValues></_>
                    <_>
                        <internalNodes>
                            0 -1 118 -2.4422669410705566e-01</internalNodes>
                        <leafValues>
                            4.6993547677993774e-01 -7.5542680919170380e-02</leafValues></_>
                    <_>
                        <internalNodes>
                            0 -1 16 -9.6978731453418732e-03</internalNodes>
                        <leafValues>
                            -5.8629453182220459e-01 6.7275606095790863e-02</leafValues></_>
                    <_>
                        <internalNodes>
                            0 -1 336 3.3730706200003624e-03</internalNodes>
                        <leafValues>
                            4.4179178774356842e-02 -6.9730848073959351e-01</leafValues></_>
                    <_>
                        <internalNodes>
                            0 -1 366 5.1015825010836124e-03</internalNodes>
                        <leafValues>
                            -1.5339134633541107e-01 2.7945625782012939e-01</leafValues></_>
                    <_>
                        <internalNodes>
                            0 -1 548 2.9003334930166602e-04</internalNodes>
                        <leafValues>
                            -1.6264076530933380e-01 2.1913355588912964e-01</leafValues></_>
                    <_>
                        <internalNodes>
                            0 -1 464 -1.6448223032057285e-03</internalNodes>
                        <leafValues>
                            -3.5021090507507324e-01 1.1150778830051422e-01</leafValues></_></weakClassifiers></_>
            <!-- stage 12 -->
            <_>
                <maxWeakCount>34</maxWeakCount>
                <stageThreshold>-1.6134699583053589e+00</stageThreshold>
                <weakClassifiers>
                    <_>
                        <internalNodes>
                            0 -1 205 -3.6827126145362854e-01</internalNodes>
                        <leafValues>
                            4.3790850043296814e-01 -5.7832932472229004e-01</leafValues></_>
                    <_>
                        <internalNodes>
                            0 -1 422 8.4494077600538731e-04</internalNodes>
                        <leafValues>
                            -1.8327151238918304e-01 3.7522101402282715e-01</leafValues></_>
                    <_>
                        <internalNodes>
                            0 -1 399 1.0682584252208471e-03</internalNodes>
                        <leafValues>
                            -1.3222901523113251e-01 3.4461483359336853e-01</leafValues></_>
                    <_>
                        <internalNodes>
                            0 -1 96 1.3084237277507782e-01</internalNodes>
                        <leafValues>
                            -1.0633473843336105e-01 4.0305608510971069e-01</leafValues></_>
                    <_>
                        <internalNodes>
                            0 -1 73 -7.4390932917594910e-02</internalNodes>
                        <leafValues>
                            3.4046357870101929e-01 -1.4363729953765869e-01</leafValues></_>
                    <_>
                        <internalNodes>
                            0 -1 404 3.0975477420724928e-04</internalNodes>
                        <leafValues>
                            1.0242917388677597e-01 -4.5199754834175110e-01</leafValues></_>
                    <_>
                        <internalNodes>
                            0 -1 405 -7.8442675294354558e-04</internalNodes>
                        <leafValues>
                            -4.1331893205642700e-01 1.5205433964729309e-01</leafValues></_>
                    <_>
                        <internalNodes>
                            0 -1 396 -7.9110020305961370e-04</internalNodes>
                        <leafValues>
                            3.6167472600936890e-01 -1.3490727543830872e-01</leafValues></_>
                    <_>
                        <internalNodes>
                            0 -1 486 -4.3585589155554771e-03</internalNodes>
                        <leafValues>
                            -4.3853625655174255e-01 9.6658706665039062e-02</leafValues></_>
                    <_>
                        <internalNodes>
                            0 -1 155 1.1343639343976974e-03</internalNodes>
                        <leafValues>
                            -1.5206760168075562e-01 2.8262513875961304e-01</leafValues></_>
                    <_>
                        <internalNodes>
                            0 -1 456 -7.0954058319330215e-03</internalNodes>
                        <leafValues>
                            3.6746549606323242e-01 -1.2757866084575653e-01</leafValues></_>
                    <_>
                        <internalNodes>
                            0 -1 482 -1.5437489375472069e-02</internalNodes>
                        <leafValues>
                            3.4428447484970093e-01 -1.3148383796215057e-01</leafValues></_>
                    <_>
                        <internalNodes>
                            0 -1 490 -1.2238969095051289e-02</internalNodes>
                        <leafValues>
                            3.5555496811866760e-01 -1.3235266506671906e-01</leafValues></_>
                    <_>
                        <internalNodes>
                            0 -1 3 2.0488485693931580e-02</internalNodes>
                        <leafValues>
                            8.9803688228130341e-02 -4.8939365148544312e-01</leafValues></_>
                    <_>
                        <internalNodes>
                            0 -1 61 -2.2388638171833009e-05</internalNodes>
                        <leafValues>
                            2.2476367652416229e-01 -1.9852384924888611e-01</leafValues></_>
                    <_>
                        <internalNodes>
                            0 -1 321 -5.1425946876406670e-03</internalNodes>
                        <leafValues>
                            2.7594897150993347e-01 -1.3095393776893616e-01</leafValues></_>
                    <_>
                        <internalNodes>
                            0 -1 279 1.2444054335355759e-01</internalNodes>
                        <leafValues>
                            -1.0445059835910797e-01 4.5951420068740845e-01</leafValues></_>
                    <_>
                        <internalNodes>
                            0 -1 446 -6.9549237377941608e-03</internalNodes>
                        <leafValues>
                            3.6348783969879150e-01 -9.5364280045032501e-02</leafValues></_>
                    <_>
                        <internalNodes>
                            0 -1 342 -6.1890490353107452e-02</internalNodes>
                        <leafValues>
                            -6.3270962238311768e-01 7.1605361998081207e-02</leafValues></_>
                    <_>
                        <internalNodes>
                            0 -1 229 -1.2377106398344040e-01</internalNodes>
                        <leafValues>
                            3.8978326320648193e-01 -1.2029662728309631e-01</leafValues></_>
                    <_>
                        <internalNodes>
                            0 -1 233 2.7154900133609772e-02</internalNodes>
                        <leafValues>
                            -1.7294028401374817e-01 2.6235374808311462e-01</leafValues></_>
                    <_>
                        <internalNodes>
                            0 -1 479 -1.5009794151410460e-04</internalNodes>
                        <leafValues>
                            -3.5092431306838989e-01 1.2557567656040192e-01</leafValues></_>
                    <_>
                        <internalNodes>
                            0 -1 559 1.1438676665420644e-05</internalNodes>
                        <leafValues>
                            -1.9712914526462555e-01 2.0458024740219116e-01</leafValues></_>
                    <_>
                        <internalNodes>
                            0 -1 5 1.1345686390995979e-02</internalNodes>
                        <leafValues>
                            6.6408306360244751e-02 -5.7298296689987183e-01</leafValues></_>
                    <_>
                        <internalNodes>
                            0 -1 42 -9.5406332984566689e-03</internalNodes>
                        <leafValues>
                            -5.7061004638671875e-01 7.2384916245937347e-02</leafValues></_>
                    <_>
                        <internalNodes>
                            0 -1 223 -4.4098637998104095e-02</internalNodes>
                        <leafValues>
                            3.8378635048866272e-01 -1.0995264351367950e-01</leafValues></_>
                    <_>
                        <internalNodes>
                            0 -1 276 -7.0050673093646765e-04</internalNodes>
                        <leafValues>
                            -2.9916733503341675e-01 1.3967399299144745e-01</leafValues></_>
                    <_>
                        <internalNodes>
                            0 -1 509 -4.8271692357957363e-03</internalNodes>
                        <leafValues>
                            -6.5485358238220215e-01 4.9836620688438416e-02</leafValues></_>
                    <_>
                        <internalNodes>
                            0 -1 244 5.9200562536716461e-02</internalNodes>
                        <leafValues>
                            -1.4526873826980591e-01 2.6318052411079407e-01</leafValues></_>
                    <_>
                        <internalNodes>
                            0 -1 522 1.8774131312966347e-03</internalNodes>
                        <leafValues>
                            -1.6308699548244476e-01 3.2385200262069702e-01</leafValues></_>
                    <_>
                        <internalNodes>
                            0 -1 356 3.9094556123018265e-03</internalNodes>
                        <leafValues>
                            -1.6552720963954926e-01 2.2136373817920685e-01</leafValues></_>
                    <_>
                        <internalNodes>
                            0 -1 114 -7.0852683857083321e-03</internalNodes>
                        <leafValues>
                            2.7740713953971863e-01 -1.3956294953823090e-01</leafValues></_>
                    <_>
                        <internalNodes>
                            0 -1 175 1.8838864564895630e-01</internalNodes>
                        <leafValues>
                            6.1392650008201599e-02 -7.9283559322357178e-01</leafValues></_>
                    <_>
                        <internalNodes>
                            0 -1 79 4.5600896701216698e-03</internalNodes>
                        <leafValues>
                            -1.5172626078128815e-01 2.5162720680236816e-01</leafValues></_></weakClassifiers></_>
            <!-- stage 13 -->
            <_>
                <maxWeakCount>44</maxWeakCount>
                <stageThreshold>-1.7193052768707275e+00</stageThreshold>
                <weakClassifiers>
                    <_>
                        <internalNodes>
                            0 -1 168 -3.9127099514007568e-01</internalNodes>
                        <leafValues>
                            6.8831169605255127e-01 -5.6317031383514404e-01</leafValues></_>
                    <_>
                        <internalNodes>
                            0 -1 406 -1.9111830624751747e-04</internalNodes>
                        <leafValues>
                            -4.8161861300468445e-01 3.5219911485910416e-02</leafValues></_>
                    <_>
                        <internalNodes>
                            0 -1 379 3.2035517506301403e-04</internalNodes>
                        <leafValues>
                            1.0470289736986160e-01 -3.8711732625961304e-01</leafValues></_>
                    <_>
                        <internalNodes>
                            0 -1 379 -1.8829887267202139e-04</internalNodes>
                        <leafValues>
                            -3.5589769482612610e-01 1.5990346670150757e-01</leafValues></_>
                    <_>
                        <internalNodes>
                            0 -1 391 -2.7613809797912836e-03</internalNodes>
                        <leafValues>
                            2.9433724284172058e-01 -1.4061148464679718e-01</leafValues></_>
                    <_>
                        <internalNodes>
                            0 -1 357 -1.0585518553853035e-02</internalNodes>
                        <leafValues>
                            3.8692981004714966e-01 -1.1354223638772964e-01</leafValues></_>
                    <_>
                        <internalNodes>
                            0 -1 475 1.4437285717576742e-03</internalNodes>
                        <leafValues>
                            7.6190151274204254e-02 -5.2530539035797119e-01</leafValues></_>
                    <_>
                        <internalNodes>
                            0 -1 105 -2.5266697775805369e-05</internalNodes>
                        <leafValues>
                            2.1725028753280640e-01 -1.6936850547790527e-01</leafValues></_>
                    <_>
                        <internalNodes>
                            0 -1 505 7.6812673360109329e-03</internalNodes>
                        <leafValues>
                            4.2972683906555176e-02 -6.7176055908203125e-01</leafValues></_>
                    <_>
                        <internalNodes>
                            0 -1 545 2.2383064497262239e-03</internalNodes>
                        <leafValues>
                            -1.2605504691600800e-01 3.4532839059829712e-01</leafValues></_>
                    <_>
                        <internalNodes>
                            0 -1 562 1.4279572293162346e-02</internalNodes>
                        <leafValues>
                            6.1793055385351181e-02 -5.6498199701309204e-01</leafValues></_>
                    <_>
                        <internalNodes>
                            0 -1 542 2.3518106900155544e-03</internalNodes>
                        <leafValues>
                            -1.3915330171585083e-01 2.9362961649894714e-01</leafValues></_>
                    <_>
                        <internalNodes>
                            0 -1 564 9.5520643517374992e-03</internalNodes>
                        <leafValues>
                            8.4023497998714447e-02 -4.1136926412582397e-01</leafValues></_>
                    <_>
                        <internalNodes>
                            0 -1 261 2.2343319654464722e-01</internalNodes>
                        <leafValues>
                            -5.7633660733699799e-02 7.0464819669723511e-01</leafValues></_>
                    <_>
                        <internalNodes>
                            0 -1 452 3.5018645226955414e-02</internalNodes>
                        <leafValues>
                            -8.6036071181297302e-02 3.9005619287490845e-01</leafValues></_>
                    <_>
                        <internalNodes>
                            0 -1 71 6.0465051792562008e-03</internalNodes>
                        <leafValues>
                            -7.9666793346405029e-02 4.2237704992294312e-01</leafValues></_>
                    <_>
                        <internalNodes>
                            0 -1 159 -2.6643727906048298e-03</internalNodes>
                        <leafValues>
                            2.7247831225395203e-01 -1.1895216256380081e-01</leafValues></_>
                    <_>
                        <internalNodes>
                            0 -1 270 8.4101338870823383e-04</internalNodes>
                        <leafValues>
                            1.2153881788253784e-01 -2.9546931385993958e-01</leafValues></_>
                    <_>
                        <internalNodes>
                            0 -1 288 -8.6583048105239868e-03</internalNodes>
                        <leafValues>
                            3.5467645525932312e-01 -1.0094144195318222e-01</leafValues></_>
                    <_>
                        <internalNodes>
                            0 -1 320 -2.4138978915289044e-04</internalNodes>
                        <leafValues>
                            -3.2227301597595215e-01 1.2694017589092255e-01</leafValues></_>
                    <_>
                        <internalNodes>
                            0 -1 88 -2.6465155315236188e-05</internalNodes>
                        <leafValues>
                            2.1272736787796021e-01 -1.6814084351062775e-01</leafValues></_>
                    <_>
                        <internalNodes>
                            0 -1 35 -4.0171556174755096e-03</internalNodes>
                        <leafValues>
                            -5.2491259574890137e-01 6.9284267723560333e-02</leafValues></_>
                    <_>
                        <internalNodes>
                            0 -1 252 -2.6008016429841518e-03</internalNodes>
                        <leafValues>
                            -3.8466957211494446e-01 9.3559280037879944e-02</leafValues></_>
                    <_>
                        <internalNodes>
                            0 -1 333 2.6610149070620537e-03</internalNodes>
                        <leafValues>
                            -1.3526125252246857e-01 2.5599199533462524e-01</leafValues></_>
                    <_>
                        <internalNodes>
                            0 -1 331 -1.1363874189555645e-02</internalNodes>
                        <leafValues>
                            3.5311412811279297e-01 -1.2461772561073303e-01</leafValues></_>
                    <_>
                        <internalNodes>
                            0 -1 294 6.7681604996323586e-03</internalNodes>
                        <leafValues>
                            -1.0448000580072403e-01 3.3736133575439453e-01</leafValues></_>
                    <_>
                        <internalNodes>
                            0 -1 189 1.0378648585174233e-04</internalNodes>
                        <leafValues>
                            -1.5235841274261475e-01 2.1819286048412323e-01</leafValues></_>
                    <_>
                        <internalNodes>
                            0 -1 37 8.0773532390594482e-03</internalNodes>
                        <leafValues>
                            8.8723130524158478e-02 -3.7633901834487915e-01</leafValues></_>
                    <_>
                        <internalNodes>
                            0 -1 50 2.9690772294998169e-02</internalNodes>
                        <leafValues>
                            -1.1009813100099564e-01 3.2778841257095337e-01</leafValues></_>
                    <_>
                        <internalNodes>
                            0 -1 290 -9.5773413777351379e-02</internalNodes>
                        <leafValues>
                            4.1167810559272766e-01 -9.3821451067924500e-02</leafValues></_>
                    <_>
                        <internalNodes>
                            0 -1 297 2.2499975748360157e-03</internalNodes>
                        <leafValues>
                            9.2738702893257141e-02 -3.8305222988128662e-01</leafValues></_>
                    <_>
                        <internalNodes>
                            0 -1 43 1.6010640189051628e-02</internalNodes>
                        <leafValues>
                            5.1437009125947952e-02 -6.0139054059982300e-01</leafValues></_>
                    <_>
                        <internalNodes>
                            0 -1 491 1.0769616346806288e-03</internalNodes>
                        <leafValues>
                            7.8494392335414886e-02 -4.1508099436759949e-01</leafValues></_>
                    <_>
                        <internalNodes>
                            0 -1 493 -1.3265614397823811e-03</internalNodes>
                        <leafValues>
                            -3.2441151142120361e-01 9.5220267772674561e-02</leafValues></_>
                    <_>
                        <internalNodes>
                            0 -1 86 1.4480088138952851e-03</internalNodes>
                        <leafValues>
                            -1.4322136342525482e-01 2.2984890639781952e-01</leafValues></_>
                    <_>
                        <internalNodes>
                            0 -1 477 1.3574063777923584e-02</internalNodes>
                        <leafValues>
                            -8.5719786584377289e-02 3.8077101111412048e-01</leafValues></_>
                    <_>
                        <internalNodes>
                            0 -1 89 -2.3342172426055185e-05</internalNodes>
                        <leafValues>
                            2.1042412519454956e-01 -1.4700327813625336e-01</leafValues></_>
                    <_>
                        <internalNodes>
                            0 -1 274 -9.4806833658367395e-05</internalNodes>
                        <leafValues>
                            -2.8529387712478638e-01 1.1345817893743515e-01</leafValues></_>
                    <_>
                        <internalNodes>
                            0 -1 497 1.4900619164109230e-02</internalNodes>
                        <leafValues>
                            -1.1605747044086456e-01 2.8576290607452393e-01</leafValues></_>
                    <_>
                        <internalNodes>
                            0 -1 361 -1.2082903087139130e-01</internalNodes>
                        <leafValues>
                            3.9181846380233765e-01 -9.0462632477283478e-02</leafValues></_>
                    <_>
                        <internalNodes>
                            0 -1 182 -2.7090584626421332e-04</internalNodes>
                        <leafValues>
                            -3.2139655947685242e-01 1.1438670754432678e-01</leafValues></_>
                    <_>
                        <internalNodes>
                            0 -1 235 -6.5923146903514862e-03</internalNodes>
                        <leafValues>
                            2.4397329986095428e-01 -1.4000062644481659e-01</leafValues></_>
                    <_>
                        <internalNodes>
                            0 -1 550 2.1846006347914226e-05</internalNodes>
                        <leafValues>
                            -2.0006754994392395e-01 1.9148604571819305e-01</leafValues></_>
                    <_>
                        <internalNodes>
                            0 -1 6 9.3289352953433990e-03</internalNodes>
                        <leafValues>
                            5.8384802192449570e-02 -5.5614662170410156e-01</leafValues></_></weakClassifiers></_>
            <!-- stage 14 -->
            <_>
                <maxWeakCount>40</maxWeakCount>
                <stageThreshold>-1.4992513656616211e+00</stageThreshold>
                <weakClassifiers>
                    <_>
                        <internalNodes>
                            0 -1 203 -3.8091889023780823e-01</internalNodes>
                        <leafValues>
                            8.2758623361587524e-01 -5.5908381938934326e-01</leafValues></_>
                    <_>
                        <internalNodes>
                            0 -1 398 -1.7443725373595953e-03</internalNodes>
                        <leafValues>
                            3.2356241345405579e-01 -1.8029950559139252e-01</leafValues></_>
                    <_>
                        <internalNodes>
                            0 -1 421 7.1650766767561436e-04</internalNodes>
                        <leafValues>
                            -1.4885623753070831e-01 3.2860231399536133e-01</leafValues></_>
                    <_>
                        <internalNodes>
