<?xml version="1.0"?>
<opencv_storage>
<cascade>
  <stageType>BOOST</stageType>
  <featureType>LBP</featureType>
  <height>24</height>
  <width>24</width>
  <stageParams>
    <boostType>GAB</boostType>
    <minHitRate>9.9500000476837158e-01</minHitRate>
    <maxFalseAlarm>5.0000000000000000e-01</maxFalseAlarm>
    <weightTrimRate>9.4999999999999996e-01</weightTrimRate>
    <maxDepth>1</maxDepth>
    <maxWeakCount>100</maxWeakCount></stageParams>
  <featureParams>
    <maxCatCount>256</maxCatCount>
    <featSize>1</featSize></featureParams>
  <stageNum>20</stageNum>
  <stages>
    <!-- stage 0 -->
    <_>
      <maxWeakCount>3</maxWeakCount>
      <stageThreshold>-1.1916822195053101e+00</stageThreshold>
      <weakClassifiers>
        <_>
          <internalNodes>
            0 -1 51 -170524673 -787361771 -721387389 -83656189
            -1073427057 -402620406 -930510677 -4209745</internalNodes>
          <leafValues>
            -9.1797900199890137e-01 8.1490385532379150e-01</leafValues></_>
        <_>
          <internalNodes>
            0 -1 41 -58199878 1897033996 -2097151997 -620002685
            -805265153 -1339846621 -1063541617 -995112017</internalNodes>
          <leafValues>
            -8.1122636795043945e-01 5.4972767829895020e-01</leafValues></_>
        <_>
          <internalNodes>
            0 -1 59 -648413302 902877191 -989646591 1359429634
            -1072788856 -1987559165 -2012673107 1870637854</internalNodes>
          <leafValues>
            -7.5512069463729858e-01 5.3752321004867554e-01</leafValues></_></weakClassifiers></_>
    <!-- stage 1 -->
    <_>
      <maxWeakCount>5</maxWeakCount>
      <stageThreshold>-1.5301667451858521e+00</stageThreshold>
      <weakClassifiers>
        <_>
          <internalNodes>
            0 -1 42 -170393601 -145359049 -138171985 -4477141 -174719489
            -38274817 -521147729 -5185</internalNodes>
          <leafValues>
            -8.5064935684204102e-01 6.2500000000000000e-01</leafValues></_>
        <_>
          <internalNodes>
            0 -1 72 -44826753 -170861673 -548294741 -4984925 1156812287
            -34349837 -340850033 -67125361</internalNodes>
          <leafValues>
            -6.4197367429733276e-01 5.9562879800796509e-01</leafValues></_>
        <_>
          <internalNodes>
            0 -1 52 -51269692 -1223311609 -453008161 -1346720989
            1083268589 1006928599 -319771433 -1598029917</internalNodes>
          <leafValues>
            -7.2855961322784424e-01 3.7924906611442566e-01</leafValues></_>
        <_>
          <internalNodes>
            0 -1 32 -36571192 -445317250 -82203735 -1212470366
            -724729451 1171818492 -100684278 3869478</internalNodes>
          <leafValues>
            -8.3539742231369019e-01 3.0872422456741333e-01</leafValues></_>
        <_>
          <internalNodes>
            0 -1 93 -1401442514 -456945197 -1768434356 -53174510
            -379502722 1912244727 -341594691 -193725833</internalNodes>
          <leafValues>
            -6.8827170133590698e-01 3.8229164481163025e-01</leafValues></_></weakClassifiers></_>
    <!-- stage 2 -->
    <_>
      <maxWeakCount>6</maxWeakCount>
      <stageThreshold>-1.1995673179626465e+00</stageThreshold>
      <weakClassifiers>
        <_>
          <internalNodes>
            0 -1 58 -524289 -13501129 -79714817 -6847069 -587346449
            -74449925 -386945793 -4161</internalNodes>
          <leafValues>
            -8.4548205137252808e-01 4.3964561820030212e-01</leafValues></_>
        <_>
          <internalNodes>
            0 -1 73 1970798391 892449687 1640991933 -276238582
            1143046629 -55839791 -392443732 -6422</internalNodes>
          <leafValues>
            -6.9752454757690430e-01 3.5226380825042725e-01</leafValues></_>
        <_>
          <internalNodes>
            0 -1 45 -321933553 -1244144873 -1377982947 -170911967
            -391451650 -526347985 -1259344922 -453656585</internalNodes>
          <leafValues>
            -6.1450397968292236e-01 4.1220331192016602e-01</leafValues></_>
        <_>
          <internalNodes>
            0 -1 87 -1622076588 -1288004842 -779103393 -1075859207
            -1510049304 -611643137 -103028083 -1905616267</internalNodes>
          <leafValues>
            -7.2926914691925049e-01 3.1847658753395081e-01</leafValues></_>
        <_>
          <internalNodes>
            0 -1 23 -35340310 -47918844 -1953978482 -1377205980
            -121242169 556030031 -1469142262 1793140095</internalNodes>
          <leafValues>
            -7.6568925380706787e-01 3.1463718414306641e-01</leafValues></_>
        <_>
          <internalNodes>
            0 -1 103 -839947466 -1605305857 1336985651 -69144318
            1153515965 1556125851 -170144764 -24646989</internalNodes>
          <leafValues>
            -6.3607746362686157e-01 3.7844860553741455e-01</leafValues></_></weakClassifiers></_>
    <!-- stage 3 -->
    <_>
      <maxWeakCount>6</maxWeakCount>
      <stageThreshold>-1.8400899171829224e+00</stageThreshold>
      <weakClassifiers>
        <_>
          <internalNodes>
            0 -1 50 -134217729 -147596357 -740558913 -6556285
            -1044391425 -41169921 -13653 -1041</internalNodes>
          <leafValues>
            -8.0818331241607666e-01 4.2303031682968140e-01</leafValues></_>
        <_>
          <internalNodes>
            0 -1 110 -990433285 -114247929 -476699877 -5982445
            -925031201 -122816349 -455406929 -352850381</internalNodes>
          <leafValues>
            -6.6465425491333008e-01 3.3283364772796631e-01</leafValues></_>
        <_>
          <internalNodes>
            0 -1 77 -414192849 -275008233 -1511882858 -154741842
            2072764247 1710467259 -35914793 -185074845</internalNodes>
          <leafValues>
            -7.1732479333877563e-01 3.0211982131004333e-01</leafValues></_>
        <_>
          <internalNodes>
            0 -1 0 -487665745 -84410513 -469762273 -537919529 -958404705
            -285245587 1040094591 -169613993</internalNodes>
          <leafValues>
            -4.7456467151641846e-01 5.2829217910766602e-01</leafValues></_>
        <_>
          <internalNodes>
            0 -1 102 1459071829 -1224691434 -284452073 -1627340925
            147654909 -18898789 -457601955 -285233664</internalNodes>
          <leafValues>
            -5.5977302789688110e-01 4.3431615829467773e-01</leafValues></_>
        <_>
          <internalNodes>
            0 -1 133 -2133562122 -851029574 -805060513 -1625924673
            -5674497 -74733391 -1475716357 -1620166027</internalNodes>
          <leafValues>
            -6.2721407413482666e-01 3.8692227005958557e-01</leafValues></_></weakClassifiers></_>
    <!-- stage 4 -->
    <_>
      <maxWeakCount>7</maxWeakCount>
      <stageThreshold>-1.4713180065155029e+00</stageThreshold>
      <weakClassifiers>
        <_>
          <internalNodes>
            0 -1 71 -167773185 -172894241 -616308737 -4980853 -643838465
            -16503 -68187393 -2129</internalNodes>
          <leafValues>
            -7.8521710634231567e-01 2.8852838277816772e-01</leafValues></_>
        <_>
          <internalNodes>
            0 -1 64 -134221889 1947438903 -158080209 -4195038 1140968827
            -35417205 -327553906 -1541</internalNodes>
          <leafValues>
            -6.2231123447418213e-01 3.4793511033058167e-01</leafValues></_>
        <_>
          <internalNodes>
            0 -1 56 -537924160 -1444962857 -711065673 -33635385
            -335547905 -2365137 -74453027 83228927</internalNodes>
          <leafValues>
            -5.4521346092224121e-01 3.9571461081504822e-01</leafValues></_>
        <_>
          <internalNodes>
            0 -1 4 -419696721 -300445186 1360772351 -2370573 -1622297742
            -94664709 2076925567 -168331913</internalNodes>
          <leafValues>
            -4.6622550487518311e-01 4.6219503879547119e-01</leafValues></_>
        <_>
          <internalNodes>
            0 -1 101 349372280 993055515 -611928803 -1348421853
            -1998778131 -91510351 -320927537 -319150080</internalNodes>
          <leafValues>
            -6.5175479650497437e-01 3.5657447576522827e-01</leafValues></_>
        <_>
          <internalNodes>
            0 -1 66 -879236329 -1355825761 -929566794 -1113354809
            -1293952249 1991477922 -509480971 -721944589</internalNodes>
          <leafValues>
            -5.4046815633773804e-01 3.8037237524986267e-01</leafValues></_>
        <_>
          <internalNodes>
            0 -1 96 771751536 1056032711 -125635892 -1965100590
            1264284500 455540865 -607535379 192936702</internalNodes>
          <leafValues>
            -7.0310443639755249e-01 2.9061117768287659e-01</leafValues></_></weakClassifiers></_>
    <!-- stage 5 -->
    <_>
      <maxWeakCount>6</maxWeakCount>
      <stageThreshold>-1.9992252588272095e+00</stageThreshold>
      <weakClassifiers>
        <_>
          <internalNodes>
            0 -1 60 -2097153 -666857 -585784321 -2642113 -50466817
            -1975817 -387994145 -1048577</internalNodes>
          <leafValues>
            -7.8450947999954224e-01 1.6307692229747772e-01</leafValues></_>
        <_>
          <internalNodes>
            0 -1 88 -1249525963 -1086996681 1103605661 -1342588129
            2087706085 -1172724047 -322064931 -318902475</internalNodes>
          <leafValues>
            -7.0096582174301147e-01 2.2258594632148743e-01</leafValues></_>
        <_>
          <internalNodes>
            0 -1 119 -11015613 -153135745 -283393037 -1427640421
            -87166995 -1074978309 -71309666 -455672201</internalNodes>
          <leafValues>
            -4.9903032183647156e-01 4.1262471675872803e-01</leafValues></_>
        <_>
          <internalNodes>
            0 -1 85 -528441 703134654 -186452610 -16854726 278354814
            2059004793 -1145345036 -2687578</internalNodes>
          <leafValues>
            -5.8391189575195312e-01 3.5958617925643921e-01</leafValues></_>
        <_>
          <internalNodes>
            0 -1 19 -526321432 -148766726 -485800437 -660872273
            1167432443 -1252866727 -653292373 1462674989</internalNodes>
          <leafValues>
            -6.9570535421371460e-01 3.0277618765830994e-01</leafValues></_>
        <_>
          <internalNodes>
            0 -1 127 -1359594571 -339570321 1889760083 -1798639349
            -216175617 -1743814654 -520785199 -1091824779</internalNodes>
          <leafValues>
            -7.3964983224868774e-01 2.6641601324081421e-01</leafValues></_></weakClassifiers></_>
    <!-- stage 6 -->
    <_>
      <maxWeakCount>6</maxWeakCount>
      <stageThreshold>-1.9201248884201050e+00</stageThreshold>
      <weakClassifiers>
        <_>
          <internalNodes>
            0 -1 57 -45088769 -34474337 -653004369 -2622669 -389298709
            -37880929 -208687185 -6292033</internalNodes>
          <leafValues>
            -7.7578151226043701e-01 3.5551503300666809e-02</leafValues></_>
        <_>
          <internalNodes>
            0 -1 53 -136847617 926154167 -886987414 -393222878
            1895114085 -1176572685 -326439762 -1051905</internalNodes>
          <leafValues>
            -6.2378501892089844e-01 2.3831899464130402e-01</leafValues></_>
        <_>
          <internalNodes>
            0 -1 109 -454017163 -1089434825 -884041794 -1081065678
            -2009331235 -47782946 -339931138 -352899534</internalNodes>
          <leafValues>
            -7.3720777034759521e-01 2.1851457655429840e-01</leafValues></_>
        <_>
          <internalNodes>
            0 -1 47 -1408770391 -40926485 -527327267 -565059471
            -55734081 -341858407 1445763709 -59712395</internalNodes>
          <leafValues>
            -4.1404798626899719e-01 4.2080906033515930e-01</leafValues></_>
        <_>
          <internalNodes>
            0 -1 120 -1075860476 -1311387189 -654075618 -1933122082
            -768622377 1032555423 -137364516 552992739</internalNodes>
          <leafValues>
            -6.3741856813430786e-01 2.6747730374336243e-01</leafValues></_>
        <_>
          <internalNodes>
            0 -1 105 -1080037433 791936340 -900502010 -1094545022
            1371737157 1508278511 -91010940 -185074717</internalNodes>
          <leafValues>
            -5.9250223636627197e-01 3.0270859599113464e-01</leafValues></_></weakClassifiers></_>
    <!-- stage 7 -->
    <_>
      <maxWeakCount>7</maxWeakCount>
      <stageThreshold>-1.5144038200378418e+00</stageThreshold>
      <weakClassifiers>
        <_>
          <internalNodes>
            0 -1 28 -16787457 -149441769 -1086102049 -543305297
            -171443713 -6322449 -333452033 -4196353</internalNodes>
          <leafValues>
            -7.5571984052658081e-01 2.5986526161432266e-02</leafValues></_>
        <_>
          <internalNodes>
            0 -1 13 1692336127 -106499233 -715459169 -119898596
            1926187108 1536583807 -234263553 -77893774</internalNodes>
          <leafValues>
            -5.4367333650588989e-01 3.3099010586738586e-01</leafValues></_>
        <_>
          <internalNodes>
            0 -1 104 -1087163051 -1080495305 -49982537 936091487
            -2100463175 -1112956765 -388125835 -1898121539</internalNodes>
          <leafValues>
            -6.1865419149398804e-01 3.0675047636032104e-01</leafValues></_>
        <_>
          <internalNodes>
            0 -1 82 1708384110 2064692175 -606880519 -679335518
            1424840151 -1630839845 -15794098 1876946592</internalNodes>
          <leafValues>
            -6.1189043521881104e-01 2.7502217888832092e-01</leafValues></_>
        <_>
          <internalNodes>
            0 -1 94 -434625784 -305933881 -771370056 -23603691 414853487
            -885817205 -829754448 -797581097</internalNodes>
          <leafValues>
            -6.6849589347839355e-01 2.7431097626686096e-01</leafValues></_>
        <_>
          <internalNodes>
            0 -1 5 -814813217 -21561481 -16818177 -135558 -571000833
            -403374090 1861695351 -537560061</internalNodes>
          <leafValues>
            -4.0775707364082336e-01 4.5628139376640320e-01</leafValues></_>
        <_>
          <internalNodes>
            0 -1 112 311788087 9548208 -1853405666 783536307 -2008823999
            -660481913 -121509615 -318964812</internalNodes>
          <leafValues>
            -5.7231962680816650e-01 3.2317912578582764e-01</leafValues></_></weakClassifiers></_>
    <!-- stage 8 -->
    <_>
      <maxWeakCount>8</maxWeakCount>
      <stageThreshold>-1.7181476354598999e+00</stageThreshold>
      <weakClassifiers>
        <_>
          <internalNodes>
            0 -1 33 -2106369 -3679233 -618923521 -538978377 -1124074501
            -1312789 -9965569 -1048583</internalNodes>
          <leafValues>
            -6.7647933959960938e-01 2.9980656504631042e-01</leafValues></_>
        <_>
          <internalNodes>
            0 -1 15 -147402753 1355313663 -350571522 2115558090
            1888627045 1873789547 -271625898 -268478849</internalNodes>
          <leafValues>
            -5.4621881246566772e-01 2.6385140419006348e-01</leafValues></_>
        <_>
          <internalNodes>
            0 -1 31 -321978866 -207688707 -2113142857 -34079417
            -477643809 -1079317585 -170702353 -788547279</internalNodes>
          <leafValues>
            -4.5649421215057373e-01 3.8487657904624939e-01</leafValues></_>
        <_>
          <internalNodes>
            0 -1 43 -2363401 831605127 1431737516 -141320438 1154091243
            1156525019 1542770319 -889689793</internalNodes>
          <leafValues>
            -5.8555412292480469e-01 2.8699874877929688e-01</leafValues></_>
        <_>
          <internalNodes>
            0 -1 145 -569391851 -13533393 -1 -1100383191 -524465
            -1660981385 -429463554 -1393115013</internalNodes>
          <leafValues>
            -3.8968512415885925e-01 4.4240254163742065e-01</leafValues></_>
        <_>
          <internalNodes>
            0 -1 63 -1074105515 -1101081670 -535035812 -1244679271
            869005053 -358367161 1776836109 -1998652739</internalNodes>
          <leafValues>
            -5.4183071851730347e-01 3.1605434417724609e-01</leafValues></_>
        <_>
          <internalNodes>
            0 -1 39 -712977202 -601755062 -619690807 -291528146
            -670782989 -753713013 -78659398 1125875787</internalNodes>
          <leafValues>
            -6.8356728553771973e-01 2.6099759340286255e-01</leafValues></_>
        <_>
          <internalNodes>
            0 -1 150 1866464759 62583517 -685522535 -1412588554
            1926228982 1294631515 -238665520 -1885612033</internalNodes>
          <leafValues>
            -4.1012677550315857e-01 4.2604246735572815e-01</leafValues></_></weakClassifiers></_>
    <!-- stage 9 -->
    <_>
      <maxWeakCount>8</maxWeakCount>
      <stageThreshold>-1.2974996566772461e+00</stageThreshold>
      <weakClassifiers>
        <_>
          <internalNodes>
            0 -1 106 -162010313 -137244105 -1045961729 -6953181
            -927872515 -1131570189 -387061089 -50857025</internalNodes>
          <leafValues>
            -7.5648254156112671e-01 -8.7776869535446167e-02</leafValues></_>
        <_>
          <internalNodes>
            0 -1 125 -37748741 993261055 -132819556 -1348338538
            1591441653 1537976568 1200224756 -805306433</internalNodes>
          <leafValues>
            -4.8971271514892578e-01 3.1081530451774597e-01</leafValues></_>
        <_>
          <internalNodes>
            0 -1 90 -46138929 593778070 -737030238 -1093761550
            2025396605 1939800491 -71319072 -537140485</internalNodes>
          <leafValues>
            -6.3030153512954712e-01 2.5389707088470459e-01</leafValues></_>
        <_>
          <internalNodes>
            0 -1 9 -889266438 -262407846 1880642526 -376704608 947550432
            403393163 2075810134 2073236277</internalNodes>
          <leafValues>
            -5.3473323583602905e-01 3.4596118330955505e-01</leafValues></_>
        <_>
          <internalNodes>
            0 -1 137 -539006189 1610563061 -25231621 1396137663
            -721431106 -152043786 -1241518881 -735658001</internalNodes>
          <leafValues>
            -3.7274634838104248e-01 4.5309889316558838e-01</leafValues></_>
        <_>
          <internalNodes>
            0 -1 52 -244073833 -1625951481 739292477 -1952535107
            -639279928 2015940705 -1474728867 685633411</internalNodes>
          <leafValues>
            -5.8416450023651123e-01 2.8929191827774048e-01</leafValues></_>
        <_>
          <internalNodes>
            0 -1 123 50013809 -1404382221 -263007183 1545778450
            2075219829 -1096744775 176936547 -285938319</internalNodes>
          <leafValues>
            -6.1991256475448608e-01 2.6645544171333313e-01</leafValues></_>
        <_>
          <internalNodes>
            0 -1 138 -14721920 777548491 -2013071138 1258082399
            -355219596 11239823 -1163872032 612234479</internalNodes>
          <leafValues>
            -5.6261003017425537e-01 2.6419311761856079e-01</leafValues></_></weakClassifiers></_>
    <!-- stage 10 -->
    <_>
      <maxWeakCount>8</maxWeakCount>
      <stageThreshold>-1.3740954399108887e+00</stageThreshold>
      <weakClassifiers>
        <_>
          <internalNodes>
            0 -1 151 -4195331 367501306 928895953 -1075977953 -708378705
            -74798822 -141035316 -1342186242</internalNodes>
          <leafValues>
            -7.1912831068038940e-01 -4.1456017643213272e-02</leafValues></_>
        <_>
          <internalNodes>
            0 -1 74 1723764507 -51258505 -248173761 -722078461
            -867963959 -55720546 -389050433 2112355303</internalNodes>
          <leafValues>
            -6.1384367942810059e-01 1.9028100371360779e-01</leafValues></_>
        <_>
          <internalNodes>
            0 -1 7 -627742417 -6573605 360764574 -597920290 1233721711
            1606130107 -1683248161 -174097481</internalNodes>
          <leafValues>
            -4.2942070960998535e-01 3.3600234985351562e-01</leafValues></_>
        <_>
          <internalNodes>
            0 -1 121 653590500 -1361414793 1091486036 -6368750 399472315
            -1135979893 -509052715 495934484</internalNodes>
          <leafValues>
            -7.6634341478347778e-01 1.9222554564476013e-01</leafValues></_>
        <_>
          <internalNodes>
            0 -1 38 421624698 445034654 -1660944002 1609193470
            2067993082 2100955809 -192714300 1503616798</internalNodes>
          <leafValues>
            -5.2073168754577637e-01 3.0022165179252625e-01</leafValues></_>
        <_>
          <internalNodes>
            0 -1 0 -530388564 -1261643274 -687482943 -7355692 1519051679
            -86091703 1039800685 1978364263</internalNodes>
          <leafValues>
            -5.6445026397705078e-01 2.6389941573143005e-01</leafValues></_>
        <_>
          <internalNodes>
            0 -1 129 -723033999 -7640053 -1023089161 -1118351206
            1237877436 -56164224 -229684228 -1507808205</internalNodes>
          <leafValues>
            -4.2838293313980103e-01 3.4334519505500793e-01</leafValues></_>
        <_>
          <internalNodes>
            0 -1 136 -1228931959 -1886270577 -1856826657 -2032803233
            -1190266444 -519877851 -611063156 545157579</internalNodes>
          <leafValues>
            -5.1824861764907837e-01 2.8780630230903625e-01</leafValues></_></weakClassifiers></_>
    <!-- stage 11 -->
    <_>
      <maxWeakCount>10</maxWeakCount>
      <stageThreshold>-1.5295363664627075e+00</stageThreshold>
      <weakClassifiers>
        <_>
          <internalNodes>
            0 -1 3 -294992137 -411894279 -1144280133 -134219319
            -573583361 -7880317 -2114093577 -760841</internalNodes>
          <leafValues>
            -7.6412779092788696e-01 -1.7663420736789703e-01</leafValues></_>
        <_>
          <internalNodes>
            0 -1 91 -824710865 806402615 -992023121 -574567165
            1152600465 -458784285 -391254514 -117968009</internalNodes>
          <leafValues>
            -6.8384367227554321e-01 1.2422180920839310e-01</leafValues></_>
        <_>
          <internalNodes>
            0 -1 134 983564283 -1749397092 320254430 -1891544632
            1618508212 -343224151 600559853 -1677746788</internalNodes>
          <leafValues>
            -4.2455419898033142e-01 3.3003437519073486e-01</leafValues></_>
        <_>
          <internalNodes>
            0 -1 116 -10108993 -552918561 1661034876 1486467406
            -508954242 2047838434 -355938059 -205133897</internalNodes>
          <leafValues>
            -3.5622105002403259e-01 4.0017578005790710e-01</leafValues></_>
        <_>
          <internalNodes>
            0 -1 86 -23805954 395686551 -653160617 1574288147 -329421879
            503406755 -396022819 564525887</internalNodes>
          <leafValues>
            -4.9086019396781921e-01 2.9112717509269714e-01</leafValues></_>
        <_>
          <internalNodes>
            0 -1 147 -21116401 -1260936943 1698812886 705681757
            -1065195160 -1580662013 1861482712 -327952337</internalNodes>
          <leafValues>
            -4.2420655488967896e-01 3.3628651499748230e-01</leafValues></_>
        <_>
          <internalNodes>
            0 -1 34 801205504 -1896120315 -317669322 -335642352
            -1182552368 -82370368 -1377768759 1082610627</internalNodes>
          <leafValues>
            -6.9731754064559937e-01 2.0629929006099701e-01</leafValues></_>
        <_>
          <internalNodes>
            0 -1 11 -840465285 -372842687 1996156583 -580424075
            -939672681 1627389732 -1477218829 -577243433</internalNodes>
          <leafValues>
            -3.1154185533523560e-01 4.8582199215888977e-01</leafValues></_>
        <_>
          <internalNodes>
            0 -1 97 -298975232 -136335027 1493244383 -1499575937
            -242224688 -1616072314 -124718346 14838630</internalNodes>
          <leafValues>
            -6.8889200687408447e-01 2.0394733548164368e-01</leafValues></_>
        <_>
          <internalNodes>
            0 -1 79 -1024693892 -1320751030 1074200835 -686628453
            1636021153 -401948669 -788078390 750144339</internalNodes>
          <leafValues>
            -6.6035479307174683e-01 2.1114568412303925e-01</leafValues></_></weakClassifiers></_>
    <!-- stage 12 -->
    <_>
      <maxWeakCount>9</maxWeakCount>
      <stageThreshold>-1.6110531091690063e+00</stageThreshold>
      <weakClassifiers>
        <_>
          <internalNodes>
            0 -1 12 -218104065 -36463897 -985443585 1382711420
            1570462987 -15771207 -5525861 -67141825</internalNodes>
          <leafValues>
            -7.0357632637023926e-01 -7.6131686568260193e-02</leafValues></_>
        <_>
          <internalNodes>
            0 -1 67 -35717882 803689931 -237972226 -1768105890 469990237
            999524505 -780084289 1086239482</internalNodes>
          <leafValues>
            -6.8548506498336792e-01 1.0692780464887619e-01</leafValues></_>
        <_>
          <internalNodes>
            0 -1 99 -588133516 -1219447242 1092293339 532782355
            -320003332 264882374 -391577347 -1526743753</internalNodes>
          <leafValues>
            -6.2638354301452637e-01 1.8987391889095306e-01</leafValues></_>
        <_>
          <internalNodes>
            0 -1 139 1065311088 106582206 -911507104 -812188612
            -640200748 797696925 1130275616 143406388</internalNodes>
          <leafValues>
            -7.6679402589797974e-01 1.7689284682273865e-01</leafValues></_>
        <_>
          <internalNodes>
            0 -1 30 -362030147 -68174044 -1107406857 1073217470
            -318787074 -34607115 -679772165 -822870783</internalNodes>
          <leafValues>
            -3.0332526564598083e-01 4.2864722013473511e-01</leafValues></_>
        <_>
          <internalNodes>
            0 -1 36 -576952581 1545500870 1157877917 432068690
            1800339700 -74718461 -1282377498 -1913487873</internalNodes>
          <leafValues>
            -3.7817752361297607e-01 3.4212800860404968e-01</leafValues></_>
        <_>
          <internalNodes>
            0 -1 84 1578229182 89388250 -1816001682 -1807477941
            1803757644 -331906904 1572465296 -102894838</internalNodes>
          <leafValues>
            -4.4656023383140564e-01 2.9545634984970093e-01</leafValues></_>
        <_>
          <internalNodes>
            0 -1 21 -2134188143 -476384620 -1610034871 -816860706
            -1544492293 -874866654 1538864115 -586702125</internalNodes>
          <leafValues>
            -3.5450130701065063e-01 3.8495564460754395e-01</leafValues></_>
        <_>
          <internalNodes>
            0 -1 128 235276098 -1826717293 1360187615 -708294525
            948006092 -1685749621 -255325457 2078038532</internalNodes>
          <leafValues>
            -7.3978108167648315e-01 1.7819342017173767e-01</leafValues></_></weakClassifiers></_>
    <!-- stage 13 -->
    <_>
      <maxWeakCount>10</maxWeakCount>
      <stageThreshold>-1.4850201606750488e+00</stageThreshold>
      <weakClassifiers>
        <_>
          <internalNodes>
            0 -1 78 -206669061 1608403661 996250463 -2207287 -502961222
            -18183991 -1282587926 -1145375857</internalNodes>
          <leafValues>
            -6.9607841968536377e-01 -1.2890625000000000e-01</leafValues></_>
        <_>
          <internalNodes>
            0 -1 40 2072566747 -512631596 1398009378 -750537183
            -926301209 1719628696 -105206353 1539285819</internalNodes>
          <leafValues>
            -5.7335281372070312e-01 1.5025667846202850e-01</leafValues></_>
        <_>
          <internalNodes>
            0 -1 3 -1351973357 -279526519 1426166201 -2137183 -892346385
            -475339940 176910839 -9341065</internalNodes>
          <leafValues>
            -4.0001922845840454e-01 2.9311054944992065e-01</leafValues></_>
        <_>
          <internalNodes>
            0 -1 81 -1057686556 -100601081 440698069 -829738101
            -2142252967 793639099 -749271461 978217472</internalNodes>
          <leafValues>
            -5.6263494491577148e-01 2.1150995790958405e-01</leafValues></_>
        <_>
          <internalNodes>
            0 -1 105 -280245355 100778134 -1072084334 2061014406
            1370571885 1837244811 -122167212 -369257741</internalNodes>
          <leafValues>
            -5.4195004701614380e-01 2.4525520205497742e-01</leafValues></_>
        <_>
          <internalNodes>
            0 -1 153 -2362494 177126318 -1359007758 32488989 1425726954
            -1931110540 -182138960 -1041766914</internalNodes>
          <leafValues>
            -3.4237769246101379e-01 3.7245255708694458e-01</leafValues></_>
        <_>
          <internalNodes>
            0 -1 65 -985600228 298953253 -1522431681 -823782848
            -2070944074 -37287277 -1576604766 553632419</internalNodes>
          <leafValues>
            -5.4704517126083374e-01 2.2665297985076904e-01</leafValues></_>
        <_>
          <internalNodes>
            0 -1 8 1724835458 1056895646 1342808096 -208453192 898591742
            1611317377 92893718 -195726221</internalNodes>
          <leafValues>
            -4.6615296602249146e-01 2.6949495077133179e-01</leafValues></_>
        <_>
          <internalNodes>
            0 -1 131 -2066189599 -611127218 -2147253937 -717225983
            -520027426 -1012826103 9461899 966668661</internalNodes>
          <leafValues>
            -6.3336056470870972e-01 1.9318316876888275e-01</leafValues></_>
        <_>
          <internalNodes>
            0 -1 27 -368972631 -25244776 48076218 222647552 1218177486
            -612167249 1662042583 -641208207</internalNodes>
          <leafValues>
            -3.8721680641174316e-01 3.1223466992378235e-01</leafValues></_></weakClassifiers></_>
    <!-- stage 14 -->
    <_>
      <maxWeakCount>10</maxWeakCount>
      <stageThreshold>-1.5256716012954712e+00</stageThreshold>
      <weakClassifiers>
        <_>
          <internalNodes>
            0 -1 14 -27277089 -78644269 -704425601 -65760261 2056477775
            -373710647 -1189561202 -77630593</internalNodes>
          <leafValues>
            -7.1012383699417114e-01 -1.8115942180156708e-01</leafValues></_>
        <_>
          <internalNodes>
            0 -1 144 -580187355 1058489754 -783788712 -1266192097
            981590748 -622439669 -232263237 -1139480325</internalNodes>
          <leafValues>
            -5.0550121068954468e-01 1.6783611476421356e-01</leafValues></_>
        <_>
          <internalNodes>
            0 -1 75 -1788631280 -1521372780 1091129733 -1478941254
            -376866588 -274890086 -359669323 -925509211</internalNodes>
          <leafValues>
            -6.3190537691116333e-01 1.7418068647384644e-01</leafValues></_>
        <_>
          <internalNodes>
            0 -1 29 -453828099 856941058 -787479510 1511357859
            1150926954 1710396814 -1109777180 1584644969</internalNodes>
          <leafValues>
            -5.7106024026870728e-01 2.2321847081184387e-01</leafValues></_>
        <_>
          <internalNodes>
            0 -1 149 -1625293504 652136878 -787832048 724988110
            822843520 -1121746943 -913784128 212056990</internalNodes>
          <leafValues>
            -5.5202716588973999e-01 1.9457860291004181e-01</leafValues></_>
        <_>
          <internalNodes>
            0 -1 122 755751152 -269045224 -787426873 -372095720
            1628781295 -324419448 1267457399 527361077</internalNodes>
          <leafValues>
            -4.9496197700500488e-01 2.2735774517059326e-01</leafValues></_>
        <_>
          <internalNodes>
            0 -1 37 -1242402823 1056346310 1342784926 260969797
            -1567686431 1393427211 1853968494 -310345893</internalNodes>
          <leafValues>
            -4.0375611186027527e-01 2.8832805156707764e-01</leafValues></_>
        <_>
          <internalNodes>
            0 -1 100 -686431457 621547971 -922679953 -821231156
            671262094 -1240498104 -1820275739 -175052033</internalNodes>
          <leafValues>
            -3.4782731533050537e-01 3.3993709087371826e-01</leafValues></_>
        <_>
          <internalNodes>
            0 -1 16 -358581582 2097418628 537077125 -648158960
            1269784763 -343793637 599773695 -1006505951</internalNodes>
          <leafValues>
            -4.2887443304061890e-01 2.9533377289772034e-01</leafValues></_>
        <_>
          <internalNodes>
            0 -1 48 -341736820 -888748217 427848198 -1967356504
            -1407083359 1515243528 -1597577213 37195197</internalNodes>
          <leafValues>
            -6.4042782783508301e-01 1.8193605542182922e-01</leafValues></_></weakClassifiers></_>
    <!-- stage 15 -->
    <_>
      <maxWeakCount>10</maxWeakCount>
      <stageThreshold>-1.4640220403671265e+00</stageThreshold>
      <weakClassifiers>
        <_>
          <internalNodes>
            0 -1 135 -81801417 -2112393 50442563 -1078472229 -116400389
            -1147228894 -617948497 -285230341</internalNodes>
          <leafValues>
            -6.9058901071548462e-01 -1.2276785820722580e-01</leafValues></_>
        <_>
          <internalNodes>
            0 -1 18 -158548470 -76625989 369164543 -2662945 -389691557
            -276160461 -1096678922 1958835030</internalNodes>
          <leafValues>
            -5.9534138441085815e-01 1.2004585564136505e-01</leafValues></_>
        <_>
          <internalNodes>
            0 -1 108 -931891339 -1154304378 -971967019 -1248085099
            -796799784 856293776 -234223368 -1361140079</internalNodes>
          <leafValues>
            -5.5142194032669067e-01 1.9828286767005920e-01</leafValues></_>
        <_>
          <internalNodes>
            0 -1 140 -547363358 759777625 -779514598 -1937161958
            1963155558 1295688296 1764724912 117025175</internalNodes>
          <leafValues>
            -5.9555578231811523e-01 2.2183538973331451e-01</leafValues></_>
        <_>
          <internalNodes>
            0 -1 142 -1810395120 -1196482089 1208576271 776450507
            -1316900151 -1328349069 -1842746420 -1938179119</internalNodes>
          <leafValues>
            -4.8215258121490479e-01 2.4034066498279572e-01</leafValues></_>
        <_>
          <internalNodes>
            0 -1 49 -140771870 -271525747 692814595 1519112597
            -1118000161 1684460284 -75797391 1486850301</internalNodes>
          <leafValues>
            -4.2222127318382263e-01 2.8985270857810974e-01</leafValues></_>
        <_>
          <internalNodes>
            0 -1 24 1995856863 -603064289 -652628581 -146231278
            998443496 -20938582 -474095112 -210600426</internalNodes>
          <leafValues>
            -4.0117511153221130e-01 3.1110426783561707e-01</leafValues></_>
        <_>
          <internalNodes>
            0 -1 95 1230619404 1455526299 -1744825880 1913491778
            -2004285317 1897431208 162089311 -1501068109</internalNodes>
          <leafValues>
            -5.8255720138549805e-01 2.0427431166172028e-01</leafValues></_>
        <_>
          <internalNodes>
            0 -1 132 -1094758859 533601775 -129 1073479679 -541114370
            2147450879 -273268769 -889260579</internalNodes>
          <leafValues>
            -3.2281041145324707e-01 3.6891430616378784e-01</leafValues></_>
        <_>
          <internalNodes>
            0 -1 54 -472183270 1862836680 -939507552 1909563608 2738430
            1661665418 -1054328378 -767342521</internalNodes>
          <leafValues>
            -4.5733326673507690e-01 2.6276859641075134e-01</leafValues></_></weakClassifiers></_>
    <!-- stage 16 -->
    <_>
      <maxWeakCount>11</maxWeakCount>
      <stageThreshold>-1.5627068281173706e+00</stageThreshold>
      <weakClassifiers>
        <_>
          <internalNodes>
            0 -1 114 -713830909 -8846640 -1785603755 -283132845
            -652281105 -921747014 -896279042 -1561079937</internalNodes>
          <leafValues>
            -7.5435537099838257e-01 -2.6898327469825745e-01</leafValues></_>
        <_>
          <internalNodes>
            0 -1 102 1690807062 -1626288106 1359910366 532648339
            -2002189827 -1149007742 -402649953 -355080702</internalNodes>
          <leafValues>
            -6.1300534009933472e-01 8.8911019265651703e-02</leafValues></_>
        <_>
          <internalNodes>
            0 -1 141 -1079250053 -1122991952 -1115661368 134191604
            972873720 -347995733 -234245175 -1680914195</internalNodes>
          <leafValues>
            -3.5076788067817688e-01 3.0878126621246338e-01</leafValues></_>
        <_>
          <internalNodes>
            0 -1 98 955046658 1283512965 1392546935 1119905586
            2080662886 -821477174 -169989974 1959472687</internalNodes>
          <leafValues>
            -5.8378636837005615e-01 2.1548077464103699e-01</leafValues></_>
        <_>
          <internalNodes>
            0 -1 26 -145757477 1616131662 -1273856804 1956014190
            2030588485 887758995 -1163253410 -1468568807</internalNodes>
          <leafValues>
            -4.6015959978103638e-01 2.3092094063758850e-01</leafValues></_>
        <_>
          <internalNodes>
            0 -1 130 -67712987 874250627 -804028393 1993069401
            -1373846890 1636981451 -341977006 -2146272649</internalNodes>
          <leafValues>
            -4.6494236588478088e-01 2.2497363388538361e-01</leafValues></_>
        <_>
          <internalNodes>
            0 -1 89 1032753296 127840962 1698869885 -1387724671
            268820632 1888232139 -464785884 183595877</internalNodes>
          <leafValues>
            -6.2016785144805908e-01 1.5866714715957642e-01</leafValues></_>
        <_>
          <internalNodes>
            0 -1 22 -286381526 -398458852 1359582097 2144920030
            -934409329 -1072709620 1266774806 1726241745</internalNodes>
          <leafValues>
            -5.8023446798324585e-01 1.7640261352062225e-01</leafValues></_>
        <_>
          <internalNodes>
            0 -1 152 -652569704 -764997549 -2096937964 1917575186
            1645781664 28314112 -754931002 276238666</internalNodes>
          <leafValues>
            -3.7530270218849182e-01 2.9493662714958191e-01</leafValues></_>
        <_>
          <internalNodes>
            0 -1 80 1452657727 -1014153082 -721043005 743810012
            1909168474 550308034 2122997246 -266734507</internalNodes>
          <leafValues>
            -3.6167761683464050e-01 3.2571023702621460e-01</leafValues></_>
        <_>
          <internalNodes>
            0 -1 17 235586208 -1379921467 1477790198 -1916610217
            -1062487062 -1429503598 413534530 1180209671</internalNodes>
          <leafValues>
            -5.5593734979629517e-01 1.9985206425189972e-01</leafValues></_></weakClassifiers></_>
    <!-- stage 17 -->
    <_>
      <maxWeakCount>9</maxWeakCount>
      <stageThreshold>-1.3062108755111694e+00</stageThreshold>
      <weakClassifiers>
        <_>
          <internalNodes>
            0 -1 126 -1827209795 -1792999206 -1693444609 -1109707704
            235643581 -631731531 822145785 -1691364691</internalNodes>
          <leafValues>
            -6.9755059480667114e-01 -1.7909002304077148e-01</leafValues></_>
        <_>
          <internalNodes>
            0 -1 143 -241759171 -1612758373 -733294124 1508359638
            -838612122 403032746 -1034687830 -1673992003</internalNodes>
          <leafValues>
            -4.8522356152534485e-01 1.4131349325180054e-01</leafValues></_>
        <_>
          <internalNodes>
            0 -1 83 -377361470 218337672 -2146909584 -163688366
            1518423086 1778980888 1418322064 26393271</internalNodes>
          <leafValues>
            -7.0333403348922729e-01 1.3957472145557404e-01</leafValues></_>
        <_>
          <internalNodes>
            0 -1 113 -677149985 1166508314 -1048522412 -85602288
            998891593 998445131 -1320879721 1423605271</internalNodes>
          <leafValues>
            -3.5859847068786621e-01 2.8941297531127930e-01</leafValues></_>
        <_>
          <internalNodes>
            0 -1 1 -283050760 -920289142 -723899186 648852702 29747591
            1920231807 851943815 545235318</internalNodes>
          <leafValues>
            -6.0318869352340698e-01 1.7787189781665802e-01</leafValues></_>
        <_>
          <internalNodes>
            0 -1 55 -468265400 -804011759 -1589623345 -1866268525
            -247242059 1363249283 -779896399 563038968</internalNodes>
          <leafValues>
            -4.9694904685020447e-01 2.1736073493957520e-01</leafValues></_>
        <_>
          <internalNodes>
            0 -1 92 -694687477 290603219 -778964724 -56192752 536871738
            -1870329680 -1198917627 -257723661</internalNodes>
          <leafValues>
            -5.2188676595687866e-01 1.9405396282672882e-01</leafValues></_>
        <_>
          <internalNodes>
            0 -1 118 -1596989949 903365324 291360867 537870430
            -234118768 -321855310 -385725476 -1569731667</internalNodes>
          <leafValues>
            -4.2240861058235168e-01 2.7545472979545593e-01</leafValues></_>
        <_>
          <internalNodes>
            0 -1 68 -1718455500 794051394 503437696 -1965801404
            2055952724 934484114 -1735860565 970975050</internalNodes>
          <leafValues>
            -5.8975154161453247e-01 1.8651774525642395e-01</leafValues></_></weakClassifiers></_>
    <!-- stage 18 -->
    <_>
      <maxWeakCount>10</maxWeakCount>
      <stageThreshold>-1.5457373857498169e+00</stageThreshold>
      <weakClassifiers>
        <_>
          <internalNodes>
            0 -1 46 -8691458 -648985597 -1827060897 -654240677
            -1186330454 -1666578404 -123675942 -547422481</internalNodes>
          <leafValues>
            -6.8841814994812012e-01 -1.4626218378543854e-01</leafValues></_>
        <_>
          <internalNodes>
            0 -1 25 -1462330628 -14721020 134590669 1416089742
            -115670980 810090497 1061941755 -949766087</internalNodes>
          <leafValues>
            -4.1284427046775818e-01 2.1927611529827118e-01</leafValues></_>
        <_>
          <internalNodes>
            0 -1 70 -1332707984 -729726845 1090572307 -700419583
            852476298 -670858622 -1065070387 783710549</internalNodes>
          <leafValues>
            -7.2304642200469971e-01 1.3724002242088318e-01</leafValues></_>
        <_>
          <internalNodes>
            0 -1 44 460753920 689340469 -1626840740 230129929 1150669173
            2019893890 -326267655 584180930</internalNodes>
          <leafValues>
            -7.5230568647384644e-01 1.5708714723587036e-01</leafValues></_>
        <_>
          <internalNodes>
            0 -1 117 -1361277520 -2128949205 -1054654462 -648097374
            -2088052563 -1736316789 -805152333 515865397</internalNodes>
          <leafValues>
            -6.1509406566619873e-01 1.4076834917068481e-01</leafValues></_>
        <_>
          <internalNodes>
            0 -1 124 -501521173 554242337 1438695572 -1131724334
            1350623260 444827814 -1186424627 -8080525</internalNodes>
          <leafValues>
            -3.4964308142662048e-01 3.0375698208808899e-01</leafValues></_>
        <_>
          <internalNodes>
            0 -1 2 -105998140 -612438610 -1075960599 1576876916
            -1080584502 590337972 -2025015813 -1829001781</internalNodes>
          <leafValues>
            -2.3739777505397797e-01 4.8175421357154846e-01</leafValues></_>
        <_>
          <internalNodes>
            0 -1 146 -1705530864 459240968 -1069530762 -1606041063
            -1123325424 721617100 -757929560 13688154</internalNodes>
          <leafValues>
            -5.9021604061126709e-01 2.0668178796768188e-01</leafValues></_>
        <_>
          <internalNodes>
            0 -1 115 1726612242 -2109696890 -1257667975 -1999431277
            -661937093 -527711798 -364845055 -293281196</internalNodes>
          <leafValues>
            -5.4862612485885620e-01 1.8943952023983002e-01</leafValues></_>
        <_>
          <internalNodes>
            0 -1 76 388809169 -547904567 -1056943706 -989199167
            805733107 -922695535 411476586 217340781</internalNodes>
          <leafValues>
            -5.0038409233093262e-01 2.2074195742607117e-01</leafValues></_></weakClassifiers></_>
    <!-- stage 19 -->
    <_>
      <maxWeakCount>10</maxWeakCount>
      <stageThreshold>-1.4249149560928345e+00</stageThreshold>
      <weakClassifiers>
        <_>
          <internalNodes>
            0 -1 20 -108662309 -202440585 838889875 -715304865
            -802960134 -1022850895 -379456261 -606078981</internalNodes>
          <leafValues>
            -6.2809211015701294e-01 1.7717717587947845e-01</leafValues></_>
        <_>
          <internalNodes>
            0 -1 6 -270005512 -899759988 -532332136 1608444760
            -1626648136 -1346207547 -1547087677 1172693667</internalNodes>
          <leafValues>
            -5.0401592254638672e-01 1.4139284193515778e-01</leafValues></_>
        <_>
          <internalNodes>
            0 -1 35 -171549196 -6729570 -1073557129 1192035595
            1519585416 -922353519 -2128450565 -1823804454</internalNodes>
          <leafValues>
            -3.3513021469116211e-01 2.9572173953056335e-01</leafValues></_>
        <_>
          <internalNodes>
            0 -1 107 1528016605 1193317848 2047541579 1997512832
            298176722 1134242202 1131016210 1178989273</internalNodes>
          <leafValues>
            -3.6848911643028259e-01 2.6847183704376221e-01</leafValues></_>
        <_>
          <internalNodes>
            0 -1 10 -325480020 -47180800 -800947583 -1429755868
            -938453924 -2075987894 -1532352546 540615208</internalNodes>
          <leafValues>
            -6.8614989519119263e-01 1.7595794796943665e-01</leafValues></_>
        <_>
          <internalNodes>
            0 -1 111 -916996314 605077642 541132830 -288304966 737622
            2030141611 -75310592 -135015433</internalNodes>
          <leafValues>
            -6.6577756404876709e-01 1.2984353303909302e-01</leafValues></_>
        <_>
          <internalNodes>
            0 -1 69 -290651520 -385113123 -754675363 -208305793
            -593941575 -83017318 -16446724 18904647</internalNodes>
          <leafValues>
            -5.2365720272064209e-01 2.0207922160625458e-01</leafValues></_>
        <_>
          <internalNodes>
            0 -1 61 1495933882 2106384977 -1643504430 1992776451
            -463278840 322134385 -520073801 784778390</internalNodes>
          <leafValues>
            -4.2231953144073486e-01 2.3990631103515625e-01</leafValues></_>
        <_>
          <internalNodes>
            0 -1 62 -651724838 1116696718 16846197 1048789658 1535355835
            -83886063 1252194963 1449398774</internalNodes>
          <leafValues>
            -4.1001671552658081e-01 2.5848117470741272e-01</leafValues></_>
        <_>
          <internalNodes>
            0 -1 148 -484538824 -1814149427 1342200182 780841055
            -886841748 856101824 -1415336306 -1242970003</internalNodes>
          <leafValues>
            -4.1397583484649658e-01 2.5462836027145386e-01</leafValues></_></weakClassifiers></_></stages>
  <features>
    <_>
      <rect>
        0 0 5 3</rect></_>
    <_>
      <rect>
        0 0 6 8</rect></_>
    <_>
      <rect>
        0 1 1 1</rect></_>
    <_>
      <rect>
        0 1 3 4</rect></_>
    <_>
      <rect>
        0 1 4 3</rect></_>
    <_>
      <rect>
        0 2 3 4</rect></_>
    <_>
      <rect>
        0 5 2 2</rect></_>
    <_>
      <rect>
        0 5 6 2</rect></_>
    <_>
      <rect>
        0 6 2 4</rect></_>
    <_>
      <rect>
        0 6 3 6</rect></_>
    <_>
      <rect>
        0 6 8 5</rect></_>
    <_>
      <rect>
        0 7 1 2</rect></_>
    <_>
      <rect>
        0 12 2 3</rect></_>
    <_>
      <rect>
        0 12 3 4</rect></_>
    <_>
      <rect>
        0 15 2 2</rect></_>
    <_>
      <rect>
        0 15 4 3</rect></_>
    <_>
      <rect>
        1 0 2 3</rect></_>
    <_>
      <rect>
        1 0 5 2</rect></_>
    <_>
      <rect>
        1 0 6 3</rect></_>
    <_>
      <rect>
        1 0 7 7</rect></_>
    <_>
      <rect>
        1 2 1 1</rect></_>
    <_>
      <rect>
        1 3 2 2</rect></_>
    <_>
      <rect>
        1 5 2 3</rect></_>
    <_>
      <rect>
        1 5 7 6</rect></_>
    <_>
      <rect>
        1 12 2 4</rect></_>
    <_>
      <rect>
        1 16 1 1</rect></_>
    <_>
      <rect>
        1 17 3 2</rect></_>
    <_>
      <rect>
        2 0 3 2</rect></_>
    <_>
      <rect>
        2 6 6 4</rect></_>
    <_>
      <rect>
        2 6 7 4</rect></_>
    <_>
      <rect>
        3 0 3 2</rect></_>
    <_>
      <rect>
        3 0 4 3</rect></_>
    <_>
      <rect>
        3 0 7 8</rect></_>
    <_>
      <rect>
        3 5 6 5</rect></_>
    <_>
      <rect>
        3 10 5 3</rect></_>
    <_>
      <rect>
        3 17 1 2</rect></_>
    <_>
      <rect>
        3 18 2 2</rect></_>
    <_>
      <rect>
        3 18 3 2</rect></_>
    <_>
      <rect>
        3 18 5 2</rect></_>
    <_>
      <rect>
        4 0 5 7</rect></_>
    <_>
      <rect>
        4 2 6 7</rect></_>
    <_>
      <rect>
        4 3 5 6</rect></_>
    <_>
      <rect>
        4 5 5 5</rect></_>
    <_>
      <rect>
        4 7 6 3</rect></_>
    <_>
      <rect>
        4 8 4 3</rect></_>
    <_>
      <rect>
        4 9 6 4</rect></_>
    <_>
      <rect>
        4 20 1 1</rect></_>
    <_>
      <rect>
        5 0 2 2</rect></_>
    <_>
      <rect>
        5 0 4 8</rect></_>
    <_>
      <rect>
        5 0 5 8</rect></_>
    <_>
      <rect>
        5 4 5 5</rect></_>
    <_>
      <rect>
        5 5 5 5</rect></_>
    <_>
      <rect>
        5 6 4 5</rect></_>
    <_>
      <rect>
        5 7 4 3</rect></_>
    <_>
      <rect>
        5 14 3 2</rect></_>
    <_>
      <rect>
        6 0 3 5</rect></_>
    <_>
      <rect>
        6 0 6 4</rect></_>
    <_>
      <rect>
        6 4 5 6</rect></_>
    <_>
      <rect>
        6 5 4 5</rect></_>
    <_>
      <rect>
        6 5 6 5</rect></_>
    <_>
      <rect>
        6 6 4 5</rect></_>
    <_>
      <rect>
        6 6 6 5</rect></_>
    <_>
      <rect>
        6 8 1 1</rect></_>
    <_>
      <rect>
        6 8 2 3</rect></_>
    <_>
      <rect>
        6 8 4 3</rect></_>
    <_>
      <rect>
        6 9 4 5</rect></_>
    <_>
      <rect>
        6 12 3 2</rect></_>
    <_>
      <rect>
        6 14 6 2</rect></_>
    <_>
      <rect>
        6 15 6 3</rect></_>
    <_>
      <rect>
        7 0 4 3</rect></_>
    <_>
      <rect>
        7 2 1 5</rect></_>
    <_>
      <rect>
        7 4 4 5</rect></_>
    <_>
      <rect>
        7 6 4 4</rect></_>
    <_>
      <rect>
        7 7 3 3</rect></_>
    <_>
      <rect>
        7 8 4 4</rect></_>
    <_>
      <rect>
        7 11 2 2</rect></_>
    <_>
      <rect>
        7 13 1 2</rect></_>
    <_>
      <rect>
        7 13 3 1</rect></_>
    <_>
      <rect>
        7 21 1 1</rect></_>
    <_>
      <rect>
        8 2 1 5</rect></_>
    <_>
      <rect>
        8 3 2 2</rect></_>
    <_>
      <rect>
        8 3 3 5</rect></_>
    <_>
      <rect>
        8 5 3 4</rect></_>
    <_>
      <rect>
        8 5 4 2</rect></_>
    <_>
      <rect>
        8 6 2 2</rect></_>
    <_>
      <rect>
        8 6 3 2</rect></_>
    <_>
      <rect>
        8 7 3 5</rect></_>
    <_>
      <rect>
        8 9 1 3</rect></_>
    <_>
      <rect>
        8 9 2 3</rect></_>
    <_>
      <rect>
        8 9 2 5</rect></_>
    <_>
      <rect>
        8 9 3 1</rect></_>
    <_>
      <rect>
        8 10 3 2</rect></_>
    <_>
      <rect>
        8 11 3 1</rect></_>
    <_>
      <rect>
        8 12 4 2</rect></_>
    <_>
      <rect>
        8 13 3 2</rect></_>
    <_>
      <rect>
        8 13 5 1</rect></_>
    <_>
      <rect>
        8 15 5 3</rect></_>
    <_>
      <rect>
        9 0 4 3</rect></_>
    <_>
      <rect>
        9 3 3 7</rect></_>
    <_>
      <rect>
        9 6 2 5</rect></_>
    <_>
      <rect>
        9 6 3 1</rect></_>
    <_>
      <rect>
        9 7 2 3</rect></_>
    <_>
      <rect>
        9 8 2 3</rect></_>
    <_>
      <rect>
        9 9 3 2</rect></_>
    <_>
      <rect>
        9 10 1 2</rect></_>
    <_>
      <rect>
        9 10 2 1</rect></_>
    <_>
      <rect>
        9 10 2 2</rect></_>
    <_>
      <rect>
        9 15 1 1</rect></_>
    <_>
      <rect>
        10 7 1 3</rect></_>
    <_>
      <rect>
        10 7 2 4</rect></_>
    <_>
      <rect>
        10 9 2 3</rect></_>
    <_>
      <rect>
        10 10 2 1</rect></_>
    <_>
      <rect>
        10 11 1 1</rect></_>
    <_>
      <rect>
        10 14 2 2</rect></_>
    <_>
      <rect>
        11 0 4 3</rect></_>
    <_>
      <rect>
        11 12 1 1</rect></_>
    <_>
      <rect>
        11 15 2 1</rect></_>
    <_>
      <rect>
        12 0 2 5</rect></_>
    <_>
      <rect>
        12 0 4 2</rect></_>
    <_>
      <rect>
        12 0 4 3</rect></_>
    <_>
      <rect>
        12 0 4 5</rect></_>
    <_>
      <rect>
        12 4 2 4</rect></_>
    <_>
      <rect>
        12 8 2 2</rect></_>
    <_>
      <rect>
        12 12 1 1</rect></_>
    <_>
      <rect>
        12 14 2 2</rect></_>
    <_>
      <rect>
        12 15 4 3</rect></_>
    <_>
      <rect>
        12 21 2 1</rect></_>
    <_>
      <rect>
        13 4 1 6</rect></_>
    <_>
      <rect>
        13 10 1 2</rect></_>
    <_>
      <rect>
        14 0 2 2</rect></_>
    <_>
      <rect>
        14 0 3 3</rect></_>
    <_>
      <rect>
        14 7 1 3</rect></_>
    <_>
      <rect>
        14 7 2 3</rect></_>
    <_>
      <rect>
        14 10 1 3</rect></_>
    <_>
      <rect>
        14 18 2 2</rect></_>
    <_>
      <rect>
        15 0 3 3</rect></_>
    <_>
      <rect>
        15 0 3 6</rect></_>
    <_>
      <rect>
        15 1 2 2</rect></_>
    <_>
      <rect>
        15 5 3 5</rect></_>
    <_>
      <rect>
        15 8 3 5</rect></_>
    <_>
      <rect>
        15 15 3 2</rect></_>
    <_>
      <rect>
        15 18 2 2</rect></_>
    <_>
      <rect>
        16 6 2 3</rect></_>
    <_>
      <rect>
        17 1 2 4</rect></_>
    <_>
      <rect>
        18 0 2 4</rect></_>
    <_>
      <rect>
        18 2 2 3</rect></_>
    <_>
      <rect>
        18 4 2 4</rect></_>
    <_>
      <rect>
        18 5 2 2</rect></_>
    <_>
      <rect>
        18 6 2 2</rect></_>
    <_>
      <rect>
        18 9 2 4</rect></_>
    <_>
      <rect>
        18 12 2 3</rect></_>
    <_>
      <rect>
        18 12 2 4</rect></_>
    <_>
      <rect>
        21 0 1 2</rect></_>
    <_>
      <rect>
        21 13 1 2</rect></_></features></cascade>
</opencv_storage>
